tree
version=v4
num_class=1
num_tree_per_iteration=1
label_index=0
max_feature_idx=46
objective=regression
feature_names=n_transactions avg_price qty_sum avg_rating prop_female prop_member prop_cash prop_ewallet prop_credit day_of_week day_of_month week_of_year month quarter is_weekend is_month_start is_month_end day_sin day_cos month_sin month_cos lag_1 lag_1_qty lag_7 lag_7_qty lag_14 lag_14_qty lag_28 lag_28_qty rolling_mean_7 rolling_std_7 rolling_max_7 rolling_min_7 rolling_mean_14 rolling_std_14 rolling_max_14 rolling_min_14 rolling_mean_30 rolling_std_30 rolling_max_30 rolling_min_30 diff_1 pct_change_1 diff_7 pct_change_7 seasonal_dow_mean seasonal_month_mean
feature_infos=[6:20] [37.857498168945312:81.397499084472656] [18:128] [5.9076924324035645:8.6142854690551758] [0.2142857164144516:0.8571428656578064] [0.1111111119389534:1] [0:0.83333331346511841] [0.052631579339504242:0.72727274894714355] [0:0.66666668653488159] [0:6] [1:31] [1:13] [1:3] none [0:1] none none [-0.97492790222167969:0.97492790222167969] [-0.90096884965896606:1] [0.5:1] [6.1232342629258393e-17:0.86602538824081421] [934.23748779296875:7474.046875] [18:128] [934.23748779296875:7474.046875] [18:128] [934.23748779296875:7474.046875] [18:128] [934.23748779296875:7228.21044921875] [18:128] [2475.5234375:4815.1845703125] [0:2192.18701171875] [4095.0419921875:7474.046875] [934.23748779296875:4745.18115234375] [2598.125244140625:4745.18115234375] [0:2008.531005859375] [4745.18115234375:7474.046875] [934.23748779296875:4745.18115234375] [2598.125244140625:4745.18115234375] [0:1979.6712646484375] [4745.18115234375:7474.046875] [934.23748779296875:4745.18115234375] [-4327.0185546875:5151.02685546875] [-0.71770739555358887:3.4401633739471436] [-5337.11865234375:5776.37548828125] [-0.73976290225982666:4.0162291526794434] [3158.256591796875:4316.9853515625] [3472.12060546875:3751.3505859375]
tree_sizes=390 399 403 399 399 402 399 401 399 399 403 403 403 398 400 400 401 402 399 400 401 401 400 402 398 400 399 401 401 401 402 402 403 319 402 401 402 399 402 395 398 403 397 398 397 396 397 396 396 395 402 402 401 399 395 395 321 400 395 395 397 398 401 395 397 324 322 323 395 394 316 392 319 323 318 397 396 396 399 396 320 322 319 320 320 397 394 395 396 395 400 396 394 395 392 390 390 395 315 395 392 394 396 392 391 398 391 394 394 391 390 396 391 391 391 397 392 389 392 392 393 393 393 393 395 391 389 391 395 391 392 392 390 391 392 387 391 392 390 390 392 390 392 390 390 392 389 317 393 316 392 391 392 391 390 394 394 393 394 393 389 390 389 315 392 392 393 393 392 392 391 390 391 389 390 392 391 393 393 393 389 391 392 389 390 392 392 392 391 392 316 316 392 315 391 396 395 395 395 395 393 392 392 392 393 392 390 392 391 393 391 393 391 317 391 392 392 392 391 392 391 390 388 391 391 397 391 397 390 393 391 394 390 391 391 391 389 392 395 391 392 392 392 391 390 316 317 317 318 393 393 392 393 393 393 389 393 390 390 392 393 392 394 392 392 391 395 392 393 317 394 393 393 395 395 394 393 393 391 392 393 392 393 393 392 391 393 395 391 388 394 395 393 393 393 393 391 392 393 392 392 392 392 394 395 392 391 392 393 394 394 393 318 393 393 391 390 392 392 390 398 392 392 395 392 391 390 391 393 392 398 399 396 401 391 393 390 391 392 391 316 395 395 393 316 393 395 395 394 395 391 392 394 395 392 394 317 393 317 394 394 393 393 392 393 395 316 317 397 392 395 392 391 393 393 394 393 394 394 391 392 393 393 395 394 397 393 394 394 394 393 393 393 394 393 390 395 389 395 395 394 400 393 394 394 392 393 393 394 391 396 397 398 393 398 317 318 318 315 318 395 393 394 395 395 394 390 394 395 397 395 399 397 400 398 315 317 317 317 392 391 394 396 395 392 389 392 393 394 396 393 394 394 392 397 395 398 396 396 395 394 395 396 395 396 393 394 395 394 395 394 396 393 395 395 393 390 392 393 398 398 398 394 396 396 397 398 397 392 395 316 317 316 318 393 394 396 395 392 394 395 397 395 396 397 396 397 394 397 396 394 394 394 396 395 397 397 395 397 398 396 400 394 394 399 392 395 318 395 393 393 394 391 393 392 394 396 396 396 396 392 395 397 395 396 392 394 393 396 395 396 398 398 393 395 318 318 394 318 319 395 394 394 317 396 395 399 399 395 399 394 395 317 396 395 317 317 394 314 395 395 395 393 393 394 394 394 391 394 395 395 395 395 395

Tree=0
num_leaves=3
num_cat=0
split_feature=2 2
split_gain=1.25962e+08 2.02706e+07
threshold=68.000000000000014 51.000000000000007
decision_type=2 2
left_child=1 -1
right_child=-2 -3
leaf_value=3552.9178305938376 3728.202398029362 3615.9746196474612
leaf_weight=25 22 26
leaf_count=25 22 26
internal_value=3628.2 3585.06
internal_weight=73 51
internal_count=73 51
is_linear=0
shrinkage=1


Tree=1
num_leaves=3
num_cat=0
split_feature=2 2
split_gain=1.13681e+08 1.82942e+07
threshold=68.000000000000014 51.000000000000007
decision_type=2 2
left_child=1 -1
right_child=-2 -3
leaf_value=-72.125951293945306 94.394388094815341 -12.22199956224515
leaf_weight=25 22 26
leaf_count=25 22 26
internal_value=-0.606085 -41.5867
internal_weight=73 51
internal_count=73 51
is_linear=0
shrinkage=0.05


Tree=2
num_leaves=3
num_cat=0
split_feature=0 44
split_gain=9.09036e+07 9.70873e+06
threshold=12.500000000000002 -0.22231680899858472
decision_type=2 2
left_child=1 -1
right_child=-2 -3
leaf_value=-62.268568957935685 84.376080252907499 -18.220594858301098
leaf_weight=22 22 29
leaf_count=22 22 29
internal_value=-0.575781 -37.2217
internal_weight=73 51
internal_count=73 51
is_linear=0
shrinkage=0.05


Tree=3
num_leaves=3
num_cat=0
split_feature=2 2
split_gain=9.46885e+07 1.57533e+07
threshold=68.000000000000014 51.000000000000007
decision_type=2 2
left_child=1 -1
right_child=-2 -3
leaf_value=-66.287185058593749 86.155386075106549 -10.698820561629077
leaf_weight=25 22 26
leaf_count=25 22 26
internal_value=-0.546993 -37.948
internal_weight=73 51
internal_count=73 51
is_linear=0
shrinkage=0.05


Tree=4
num_leaves=3
num_cat=0
split_feature=2 2
split_gain=8.56076e+07 7.0382e+06
threshold=60.500000000000007 48.500000000000007
decision_type=2 2
left_child=1 -1
right_child=-2 -3
leaf_value=-65.509480840509596 64.304718285799026 -25.041278580256872
leaf_weight=22 30 21
leaf_count=22 30 21
internal_value=-0.519642 -45.7459
internal_weight=73 43
internal_count=73 43
is_linear=0
shrinkage=0.05


Tree=5
num_leaves=3
num_cat=0
split_feature=2 42
split_gain=5.36135e+07 3.94097e+06
threshold=60.500000000000007 -0.27548050880432123
decision_type=2 2
left_child=1 -1
right_child=-2 -3
leaf_value=-58.246845779418948 46.890037550245012 -27.899061497398044
leaf_weight=20 28 23
leaf_count=20 28 23
internal_value=-6.95344 -42.0143
internal_weight=71 43
internal_count=71 43
is_linear=0
shrinkage=0.05


Tree=6
num_leaves=3
num_cat=0
split_feature=43 29
split_gain=4.1023e+07 5.35535e+06
threshold=599.53952026367199 3536.912963867188
decision_type=2 2
left_child=1 -1
right_child=-2 -3
leaf_value=-50.260290428161625 44.948364784240724 -16.010068675449915
leaf_weight=25 25 21
leaf_count=25 25 21
internal_value=-6.60577 -34.6243
internal_weight=71 46
internal_count=71 46
is_linear=0
shrinkage=0.05


Tree=7
num_leaves=3
num_cat=0
split_feature=2 42
split_gain=4.57223e+07 3.54518e+06
threshold=60.500000000000007 -0.27548050880432123
decision_type=2 2
left_child=1 -1
right_child=-2 -3
leaf_value=-54.049306106567386 43.447820908682694 -25.26573737807896
leaf_weight=20 28 23
leaf_count=20 28 23
internal_value=-6.27548 -38.6534
internal_weight=71 43
internal_count=71 43
is_linear=0
shrinkage=0.05


Tree=8
num_leaves=3
num_cat=0
split_feature=2 2
split_gain=4.19638e+07 7.80125e+06
threshold=68.000000000000014 52.500000000000007
decision_type=2 2
left_child=1 -1
right_child=-2 -3
leaf_value=-47.757086828776771 55.421336822509765 -8.4569317361582872
leaf_weight=28 20 23
leaf_count=28 20 23
internal_value=-5.96171 -30.0335
internal_weight=71 51
internal_count=71 51
is_linear=0
shrinkage=0.05


Tree=9
num_leaves=3
num_cat=0
split_feature=2 2
split_gain=3.78723e+07 7.04063e+06
threshold=68.000000000000014 52.500000000000007
decision_type=2 2
left_child=1 -1
right_child=-2 -3
leaf_value=-45.369232744830001 52.650269927978513 -8.0340853317924168
leaf_weight=28 20 23
leaf_count=28 20 23
internal_value=-5.66362 -28.5318
internal_weight=71 51
internal_count=71 51
is_linear=0
shrinkage=0.05


Tree=10
num_leaves=3
num_cat=0
split_feature=2 42
split_gain=5.06856e+07 7.36815e+06
threshold=74.000000000000014 -0.34571744501590723
decision_type=2 2
left_child=1 -1
right_child=-2 -3
leaf_value=-50.960557001287292 61.657526120272557 -12.587701600173425
leaf_weight=22 22 29
leaf_count=22 22 29
internal_value=-1.77685 -29.1407
internal_weight=73 51
internal_count=73 51
is_linear=0
shrinkage=0.05


Tree=11
num_leaves=3
num_cat=0
split_feature=2 42
split_gain=4.57438e+07 6.64976e+06
threshold=74.000000000000014 -0.34571744501590723
decision_type=2 2
left_child=1 -1
right_child=-2 -3
leaf_value=-48.412529858675867 58.574649741432886 -11.958316525097551
leaf_weight=22 22 29
leaf_count=22 22 29
internal_value=-1.68801 -27.6837
internal_weight=73 51
internal_count=73 51
is_linear=0
shrinkage=0.05


Tree=12
num_leaves=3
num_cat=0
split_feature=2 42
split_gain=4.12837e+07 6.00141e+06
threshold=74.000000000000014 -0.34571744501590723
decision_type=2 2
left_child=1 -1
right_child=-2 -3
leaf_value=-45.991902628811928 55.645917372270063 -11.360400600063391
leaf_weight=22 22 29
leaf_count=22 22 29
internal_value=-1.60361 -26.2995
internal_weight=73 51
internal_count=73 51
is_linear=0
shrinkage=0.05


Tree=13
num_leaves=3
num_cat=0
split_feature=2 2
split_gain=3.72586e+07 5.57715e+06
threshold=74.000000000000014 48.500000000000007
decision_type=2 2
left_child=1 -1
right_child=-2 -3
leaf_value=-43.227916377523677 52.86361976103349 -9.998847826889584
leaf_weight=23 22 28
leaf_count=23 22 28
internal_value=-1.52343 -24.9845
internal_weight=73 51
internal_count=73 51
is_linear=0
shrinkage=0.05


Tree=14
num_leaves=3
num_cat=0
split_feature=2 2
split_gain=3.36259e+07 5.03337e+06
threshold=74.000000000000014 48.500000000000007
decision_type=2 2
left_child=1 -1
right_child=-2 -3
leaf_value=-41.066520645307463 50.220440641316507 -9.4989049257976674
leaf_weight=23 22 28
leaf_count=23 22 28
internal_value=-1.44726 -23.7353
internal_weight=73 51
internal_count=73 51
is_linear=0
shrinkage=0.05


Tree=15
num_leaves=3
num_cat=0
split_feature=2 1
split_gain=2.11074e+07 2.96777e+06
threshold=60.500000000000007 55.501979827880866
decision_type=2 2
left_child=1 -1
right_child=-2 -3
leaf_value=-38.507034959793089 33.567793708801268 -11.594633381707329
leaf_weight=20 25 21
leaf_count=20 25 21
internal_value=-2.64293 -24.7226
internal_weight=66 41
internal_count=66 41
is_linear=0
shrinkage=0.05


Tree=16
num_leaves=3
num_cat=0
split_feature=43 4
split_gain=2.26084e+07 2.54708e+06
threshold=767.65499877929699 0.55902779102325451
decision_type=2 2
left_child=1 -1
right_child=-2 -3
leaf_value=-12.565496905990269 37.502426744543989 -36.96304618835449
leaf_weight=23 23 20
leaf_count=23 23 20
internal_value=-2.51078 -23.9132
internal_weight=66 43
internal_count=66 43
is_linear=0
shrinkage=0.05


Tree=17
num_leaves=3
num_cat=0
split_feature=41 22
split_gain=1.81958e+07 2.93287e+06
threshold=423.34425354003912 62.500000000000007
decision_type=2 2
left_child=1 -1
right_child=-2 -3
leaf_value=-35.936164483569918 31.235326728820805 -9.1824832081794749
leaf_weight=21 25 20
leaf_count=21 25 20
internal_value=-2.38524 -22.8856
internal_weight=66 41
internal_count=66 41
is_linear=0
shrinkage=0.05


Tree=18
num_leaves=3
num_cat=0
split_feature=2 1
split_gain=1.73745e+07 3.68043e+06
threshold=66.500000000000014 53.416862487792976
decision_type=2 2
left_child=1 -1
right_child=-2 -3
leaf_value=-35.30715982437134 36.640186018943787 -6.7775068503159748
leaf_weight=20 20 26
leaf_count=20 20 26
internal_value=-2.26598 -19.1817
internal_weight=66 46
internal_count=66 46
is_linear=0
shrinkage=0.05


Tree=19
num_leaves=3
num_cat=0
split_feature=43 4
split_gain=1.85096e+07 2.1948e+06
threshold=767.65499877929699 0.55902779102325451
decision_type=2 2
left_child=1 -1
right_child=-2 -3
leaf_value=-10.984260094684103 34.052131242337438 -33.631898498535158
leaf_weight=23 23 20
leaf_count=23 23 20
internal_value=-2.15268 -21.518
internal_weight=66 43
internal_count=66 43
is_linear=0
shrinkage=0.05


Tree=20
num_leaves=3
num_cat=0
split_feature=41 21
split_gain=2.16514e+07 4.44268e+06
threshold=928.10025024414074 3785.995483398438
decision_type=2 2
left_child=1 -1
right_child=-2 -3
leaf_value=-36.008967484037086 38.987709153782241 -6.4431503596129254
leaf_weight=24 22 27
leaf_count=24 22 27
internal_value=-2.47193 -20.3565
internal_weight=73 51
internal_count=73 51
is_linear=0
shrinkage=0.05


Tree=21
num_leaves=3
num_cat=0
split_feature=41 21
split_gain=1.95404e+07 4.00951e+06
threshold=928.10025024414074 3785.995483398438
decision_type=2 2
left_child=1 -1
right_child=-2 -3
leaf_value=-34.208519268035893 37.038323399153619 -6.1209928874616271
leaf_weight=24 22 27
leaf_count=24 22 27
internal_value=-2.34833 -19.3387
internal_weight=73 51
internal_count=73 51
is_linear=0
shrinkage=0.05


Tree=22
num_leaves=3
num_cat=0
split_feature=2 2
split_gain=2.29594e+07 3.11815e+06
threshold=74.000000000000014 46.000000000000007
decision_type=2 2
left_child=1 -1
right_child=-2 -3
leaf_value=-34.842285520380194 40.462680057910354 -9.8794967947335088
leaf_weight=22 22 29
leaf_count=22 22 29
internal_value=-2.23091 -20.6478
internal_weight=73 51
internal_count=73 51
is_linear=0
shrinkage=0.05


Tree=23
num_leaves=3
num_cat=0
split_feature=2 42
split_gain=2.07209e+07 2.92775e+06
threshold=74.000000000000014 -0.34571744501590723
decision_type=2 2
left_child=1 -1
right_child=-2 -3
leaf_value=-34.530181789398192 38.439546411687679 -9.992912137123847
leaf_weight=20 22 31
leaf_count=20 22 31
internal_value=-2.11937 -19.6154
internal_weight=73 51
internal_count=73 51
is_linear=0
shrinkage=0.05


Tree=24
num_leaves=3
num_cat=0
split_feature=2 2
split_gain=1.87006e+07 2.73618e+06
threshold=74.000000000000014 46.000000000000007
decision_type=2 2
left_child=1 -1
right_child=-2 -3
leaf_value=-31.931327802484688 36.517568172108042 -8.547431319335411
leaf_weight=22 22 29
leaf_count=22 22 29
internal_value=-2.0134 -18.6346
internal_weight=73 51
internal_count=73 51
is_linear=0
shrinkage=0.05


Tree=25
num_leaves=3
num_cat=0
split_feature=43 1
split_gain=1.30746e+07 2.54242e+06
threshold=599.53952026367199 52.970001220703132
decision_type=2 2
left_child=1 -1
right_child=-2 -3
leaf_value=-28.812593791795816 25.06631406353366 -4.7497675941103976
leaf_weight=23 31 21
leaf_count=23 31 21
internal_value=0.194946 -17.3281
internal_weight=75 44
internal_count=75 44
is_linear=0
shrinkage=0.05


Tree=26
num_leaves=3
num_cat=0
split_feature=1 2
split_gain=1.15236e+07 5.99451e+06
threshold=54.590694427490241 59.500000000000007
decision_type=2 2
left_child=-1 -2
right_child=1 -3
leaf_value=-21.925462607181434 -2.2536937332153322 35.568366622924806
leaf_weight=33 20 22
leaf_count=33 20 22
internal_value=0.185199 17.5579
internal_weight=75 42
internal_count=75 42
is_linear=0
shrinkage=0.05


Tree=27
num_leaves=3
num_cat=0
split_feature=41 1
split_gain=1.05983e+07 3.61524e+06
threshold=1314.3059692382815 52.970001220703132
decision_type=2 2
left_child=1 -1
right_child=-2 -3
leaf_value=-25.479032363891605 30.316004707699733 0.46672946995702286
leaf_weight=25 21 29
leaf_count=25 21 29
internal_value=0.175939 -11.5452
internal_weight=75 54
internal_count=75 54
is_linear=0
shrinkage=0.05


Tree=28
num_leaves=3
num_cat=0
split_feature=43 1
split_gain=1.04672e+07 1.91528e+06
threshold=599.53952026367199 52.067916870117195
decision_type=2 2
left_child=1 -1
right_child=-2 -3
leaf_value=-26.428810573759534 22.420735420719272 -5.5435704189798116
leaf_weight=21 31 23
leaf_count=21 31 23
internal_value=0.167142 -15.5115
internal_weight=75 44
internal_count=75 44
is_linear=0
shrinkage=0.05


Tree=29
num_leaves=3
num_cat=0
split_feature=43 1
split_gain=9.44665e+06 1.72854e+06
threshold=599.53952026367199 52.067916870117195
decision_type=2 2
left_child=1 -1
right_child=-2 -3
leaf_value=-25.107370526450023 21.299698485097579 -5.2663917624432113
leaf_weight=21 31 23
leaf_count=21 31 23
internal_value=0.158785 -14.7359
internal_weight=75 44
internal_count=75 44
is_linear=0
shrinkage=0.05


Tree=30
num_leaves=3
num_cat=0
split_feature=41 2
split_gain=1.57787e+07 2.28634e+06
threshold=1314.3059692382815 54.500000000000007
decision_type=2 2
left_child=1 -1
right_child=-2 -3
leaf_value=-25.961024220784505 36.489028549194337 -4.2467397386377508
leaf_weight=27 20 22
leaf_count=27 20 22
internal_value=-0.936165 -16.2118
internal_weight=69 49
internal_count=69 49
is_linear=0
shrinkage=0.05


Tree=31
num_leaves=3
num_cat=0
split_feature=41 2
split_gain=1.42403e+07 2.06342e+06
threshold=1314.3059692382815 54.500000000000007
decision_type=2 2
left_child=1 -1
right_child=-2 -3
leaf_value=-24.662972768147789 34.664576959609988 -4.0344025525179772
leaf_weight=27 20 22
leaf_count=27 20 22
internal_value=-0.889356 -15.4012
internal_weight=69 49
internal_count=69 49
is_linear=0
shrinkage=0.05


Tree=32
num_leaves=3
num_cat=0
split_feature=41 22
split_gain=1.28518e+07 1.98659e+06
threshold=1314.3059692382815 62.500000000000007
decision_type=2 2
left_child=1 -1
right_child=-2 -3
leaf_value=-25.784221688183877 32.931347999572758 -5.5433848169114857
leaf_weight=22 20 27
leaf_count=22 20 27
internal_value=-0.844889 -14.6311
internal_weight=69 49
internal_count=69 49
is_linear=0
shrinkage=0.05


Tree=33
num_leaves=2
num_cat=0
split_feature=43
split_gain=1.19446e+07
threshold=599.53952026367199
decision_type=2
left_child=-1
right_child=-2
leaf_value=-19.04828446950668 22.91668860435486
leaf_weight=39 30
leaf_count=39 30
internal_value=-0.802644
internal_weight=69
internal_count=69
is_linear=0
shrinkage=0.05


Tree=34
num_leaves=3
num_cat=0
split_feature=41 2
split_gain=1.11256e+07 1.62008e+06
threshold=1314.3059692382815 54.500000000000007
decision_type=2 2
left_child=1 -1
right_child=-2 -3
leaf_value=-21.796167691548668 30.663509581089023 -3.5175890239802272
leaf_weight=27 20 22
leaf_count=27 20 22
internal_value=-0.762512 -13.5895
internal_weight=69 49
internal_count=69 49
is_linear=0
shrinkage=0.05


Tree=35
num_leaves=3
num_cat=0
split_feature=42 29
split_gain=9.03308e+06 1.9725e+06
threshold=0.070119827985763564 3675.870727539063
decision_type=2 2
left_child=1 -1
right_child=-2 -3
leaf_value=-22.930272518504751 23.863768056460792 -2.4022767429351806
leaf_weight=22 28 25
leaf_count=22 28 25
internal_value=1.38217 -12.0111
internal_weight=75 47
internal_count=75 47
is_linear=0
shrinkage=0.05


Tree=36
num_leaves=3
num_cat=0
split_feature=2 42
split_gain=8.50235e+06 1.92877e+06
threshold=74.000000000000014 -0.34571744501590723
decision_type=2 2
left_child=1 -1
right_child=-2 -3
leaf_value=-20.752761146000452 29.230479786396032 -1.4800630877999699
leaf_weight=21 20 34
leaf_count=21 20 34
internal_value=1.31306 -8.83873
internal_weight=75 55
internal_count=75 55
is_linear=0
shrinkage=0.05


Tree=37
num_leaves=3
num_cat=0
split_feature=41 29
split_gain=7.76138e+06 1.64547e+06
threshold=195.22125244140628 3675.870727539063
decision_type=2 2
left_child=1 -1
right_child=-2 -3
leaf_value=-21.14033498438922 22.086499813624794 -2.3911651744842533
leaf_weight=22 28 25
leaf_count=22 28 25
internal_value=1.24741 -11.1674
internal_weight=75 47
internal_count=75 47
is_linear=0
shrinkage=0.05


Tree=38
num_leaves=3
num_cat=0
split_feature=2 42
split_gain=7.35705e+06 1.57232e+06
threshold=74.000000000000014 -0.34571744501590723
decision_type=2 2
left_child=1 -1
right_child=-2 -3
leaf_value=-19.015233384995234 27.154184026718141 -1.6142960200414938
leaf_weight=21 20 34
leaf_count=21 20 34
internal_value=1.18504 -8.25829
internal_weight=75 55
internal_count=75 55
is_linear=0
shrinkage=0.05


Tree=39
num_leaves=3
num_cat=0
split_feature=41 22
split_gain=6.67151e+06 913250
threshold=195.22125244140628 76.000000000000014
decision_type=2 2
left_child=1 -1
right_child=-2 -3
leaf_value=-17.504013973733656 20.446421801831043 -3.561402714252472
leaf_weight=23 28 24
leaf_count=23 28 24
internal_value=1.12578 -10.3844
internal_weight=75 47
internal_count=75 47
is_linear=0
shrinkage=0.05


Tree=40
num_leaves=3
num_cat=0
split_feature=2 1
split_gain=6.63056e+06 1.69802e+06
threshold=79.500000000000014 56.663999557495124
decision_type=2 2
left_child=1 -1
right_child=-2 -3
leaf_value=-15.467263770103456 26.776625919342042 2.4606646695137027
leaf_weight=28 20 25
leaf_count=28 20 25
internal_value=2.24611 -7.01069
internal_weight=73 53
internal_count=73 53
is_linear=0
shrinkage=0.05


Tree=41
num_leaves=3
num_cat=0
split_feature=2 17
split_gain=5.98408e+06 1.10873e+06
threshold=79.500000000000014 1.0000000180025095e-35
decision_type=2 2
left_child=1 -1
right_child=-2 -3
leaf_value=-0.3280636962254842 25.437795045375825 -14.919414062085361
leaf_weight=30 20 23
leaf_count=30 20 23
internal_value=2.1338 -6.66016
internal_weight=73 53
internal_count=73 53
is_linear=0
shrinkage=0.05


Tree=42
num_leaves=3
num_cat=0
split_feature=43 45
split_gain=4.9521e+06 2.05815e+06
threshold=767.65499877929699 3596.614135742188
decision_type=2 2
left_child=1 -1
right_child=-2 -3
leaf_value=-18.878379349086597 18.06808860260865 2.7717733318784408
leaf_weight=23 29 21
leaf_count=23 29 21
internal_value=2.02711 -8.54535
internal_weight=73 44
internal_count=73 44
is_linear=0
shrinkage=0.05


Tree=43
num_leaves=3
num_cat=0
split_feature=2 1
split_gain=5.15064e+06 1.45937e+06
threshold=79.500000000000014 56.663999557495124
decision_type=2 2
left_child=1 -1
right_child=-2 -3
leaf_value=-14.072678729466029 23.546070709228516 2.5477490773200988
leaf_weight=28 20 25
leaf_count=28 20 25
internal_value=1.92576 -6.23285
internal_weight=73 53
internal_count=73 53
is_linear=0
shrinkage=0.05


Tree=44
num_leaves=3
num_cat=0
split_feature=2 41
split_gain=4.64845e+06 896708
threshold=79.500000000000014 1.0000000180025095e-35
decision_type=2 2
left_child=1 -1
right_child=-2 -3
leaf_value=-11.40004393746776 22.368767194747928 1.7989611625671387
leaf_weight=31 20 22
leaf_count=31 20 22
internal_value=1.82947 -5.92121
internal_weight=73 53
internal_count=73 53
is_linear=0
shrinkage=0.05


Tree=45
num_leaves=3
num_cat=0
split_feature=1 22
split_gain=5.24399e+06 600435
threshold=57.245395660400398 59.500000000000007
decision_type=2 2
left_child=1 -1
right_child=-2 -3
leaf_value=-18.189022655487062 15.86213971253099 -5.9371350121498114
leaf_weight=20 29 20
leaf_count=20 29 20
internal_value=-0.326393 -12.0631
internal_weight=69 40
internal_count=69 40
is_linear=0
shrinkage=0.05


Tree=46
num_leaves=3
num_cat=0
split_feature=41 10
split_gain=4.13015e+06 684400
threshold=1314.3059692382815 17.500000000000004
decision_type=2 2
left_child=1 -1
right_child=-2 -3
leaf_value=-3.2569083323845498 17.569855078783903 -15.392964260918754
leaf_weight=26 22 21
leaf_count=26 22 21
internal_value=-0.310073 -8.6794
internal_weight=69 47
internal_count=69 47
is_linear=0
shrinkage=0.05


Tree=47
num_leaves=3
num_cat=0
split_feature=43 22
split_gain=3.57878e+06 694868
threshold=767.65499877929699 54.500000000000007
decision_type=2 2
left_child=1 -1
right_child=-2 -3
leaf_value=-16.16972238123417 13.907630639606053 -3.2925853215835312
leaf_weight=20 27 22
leaf_count=20 27 22
internal_value=-0.29457 -9.42456
internal_weight=69 42
internal_count=69 42
is_linear=0
shrinkage=0.05


Tree=48
num_leaves=3
num_cat=0
split_feature=1 22
split_gain=4.41662e+06 501300
threshold=57.245395660400398 59.500000000000007
decision_type=2 2
left_child=1 -1
right_child=-2 -3
leaf_value=-16.64835352897644 14.576824351220296 -5.4534931218624116
leaf_weight=20 29 20
leaf_count=20 29 20
internal_value=-0.279841 -11.0509
internal_weight=69 40
internal_count=69 40
is_linear=0
shrinkage=0.05


Tree=49
num_leaves=3
num_cat=0
split_feature=1 22
split_gain=3.986e+06 452423
threshold=57.245395660400398 59.500000000000007
decision_type=2 2
left_child=1 -1
right_child=-2 -3
leaf_value=-15.815936174392702 13.847983010061856 -5.1808185386657719
leaf_weight=20 29 20
leaf_count=20 29 20
internal_value=-0.265849 -10.4984
internal_weight=69 40
internal_count=69 40
is_linear=0
shrinkage=0.05


Tree=50
num_leaves=3
num_cat=0
split_feature=43 21
split_gain=2.71804e+06 1.40248e+06
threshold=1216.6875000000002 3141.8886718750005
decision_type=2 2
left_child=1 -1
right_child=-2 -3
leaf_value=-18.634500272274018 13.424601793289185 -1.4236230387256064
leaf_weight=20 20 29
leaf_count=20 20 29
internal_value=-2.10845 -8.44847
internal_weight=69 49
internal_count=69 49
is_linear=0
shrinkage=0.05


Tree=51
num_leaves=3
num_cat=0
split_feature=43 21
split_gain=2.45304e+06 1.26574e+06
threshold=1216.6875000000002 3141.8886718750005
decision_type=2 2
left_child=1 -1
right_child=-2 -3
leaf_value=-17.702774953842162 12.753371677398682 -1.3524417332534133
leaf_weight=20 20 29
leaf_count=20 20 29
internal_value=-2.00303 -8.02605
internal_weight=69 49
internal_count=69 49
is_linear=0
shrinkage=0.05


Tree=52
num_leaves=3
num_cat=0
split_feature=43 45
split_gain=2.21386e+06 1.00468e+06
threshold=1216.6875000000002 3596.614135742188
decision_type=2 2
left_child=1 -1
right_child=-2 -3
leaf_value=-14.087471813625761 12.115703258514404 0.30678341171958229
leaf_weight=27 20 22
leaf_count=27 20 22
internal_value=-1.90288 -7.62474
internal_weight=69 49
internal_count=69 49
is_linear=0
shrinkage=0.05


Tree=53
num_leaves=3
num_cat=0
split_feature=1 2
split_gain=2.06874e+06 1.56778e+06
threshold=50.155138015747077 58.500000000000007
decision_type=2 2
left_child=-1 -2
right_child=1 -3
leaf_value=-15.359056768417359 -5.4046498750646919 12.486368770599366
leaf_weight=20 24 25
leaf_count=20 24 25
internal_value=-1.80773 3.72342
internal_weight=69 49
internal_count=69 49
is_linear=0
shrinkage=0.05


Tree=54
num_leaves=3
num_cat=0
split_feature=43 45
split_gain=1.88079e+06 856368
threshold=1216.6875000000002 3596.614135742188
decision_type=2 2
left_child=1 -1
right_child=-2 -3
leaf_value=-12.957919636479131 11.203736782073975 0.3314661789346825
leaf_weight=27 20 22
leaf_count=27 20 22
internal_value=-1.71735 -6.99126
internal_weight=69 49
internal_count=69 49
is_linear=0
shrinkage=0.05


Tree=55
num_leaves=3
num_cat=0
split_feature=2 22
split_gain=3.1696e+06 835282
threshold=66.500000000000014 54.500000000000007
decision_type=2 2
left_child=1 -1
right_child=-2 -3
leaf_value=-13.829161988553546 15.587487060546875 -0.63761133636747092
leaf_weight=21 25 28
leaf_count=21 25 28
internal_value=1.10029 -6.29113
internal_weight=74 49
internal_count=74 49
is_linear=0
shrinkage=0.05


Tree=56
num_leaves=2
num_cat=0
split_feature=42
split_gain=3.06999e+06
threshold=-0.10703016445040701
decision_type=2
left_child=-1
right_child=-2
leaf_value=-9.7050236470358726 10.692984791291067
leaf_weight=35 39
leaf_count=35 39
internal_value=1.04528
internal_weight=74
internal_count=74
is_linear=0
shrinkage=0.05


Tree=57
num_leaves=3
num_cat=0
split_feature=42 34
split_gain=2.79819e+06 1.158e+06
threshold=0.070119827985763564 1564.3933715820315
decision_type=2 2
left_child=1 -1
right_child=-2 -3
leaf_value=1.1359067735217867 12.444091513849074 -15.27899253639308
leaf_weight=21 31 22
leaf_count=21 31 22
internal_value=0.993014 -7.26241
internal_weight=74 43
internal_count=74 43
is_linear=0
shrinkage=0.05


Tree=58
num_leaves=3
num_cat=0
split_feature=2 21
split_gain=2.6614e+06 458444
threshold=59.500000000000007 3141.8886718750005
decision_type=2 2
left_child=1 -1
right_child=-2 -3
leaf_value=-13.151619911193848 11.228253678714529 -2.4459667468070982
leaf_weight=20 34 20
leaf_count=20 34 20
internal_value=0.943363 -7.79879
internal_weight=74 40
internal_count=74 40
is_linear=0
shrinkage=0.05


Tree=59
num_leaves=3
num_cat=0
split_feature=41 38
split_gain=2.48793e+06 947660
threshold=423.34425354003912 1392.733581542969
decision_type=2 2
left_child=1 -1
right_child=-2 -3
leaf_value=1.9259915971755981 12.647159320967539 -12.550840572210459
leaf_weight=20 28 26
leaf_count=20 28 26
internal_value=0.896195 -6.25657
internal_weight=74 46
internal_count=74 46
is_linear=0
shrinkage=0.05


Tree=60
num_leaves=3
num_cat=0
split_feature=43 22
split_gain=1.47939e+06 777721
threshold=927.15524291992199 51.000000000000007
decision_type=2 2
left_child=1 -1
right_child=-2 -3
leaf_value=-13.600097384452821 9.8585030147007533 -1.0313019722700119
leaf_weight=20 21 32
leaf_count=20 21 32
internal_value=-1.34212 -5.86545
internal_weight=73 52
internal_count=73 52
is_linear=0
shrinkage=0.05


Tree=61
num_leaves=3
num_cat=0
split_feature=43 22
split_gain=1.33515e+06 701893
threshold=927.15524291992199 51.000000000000007
decision_type=2 2
left_child=1 -1
right_child=-2 -3
leaf_value=-12.920092520713807 9.3655782699584957 -0.97973677366971978
leaf_weight=20 21 32
leaf_count=20 21 32
internal_value=-1.27502 -5.57218
internal_weight=73 52
internal_count=73 52
is_linear=0
shrinkage=0.05


Tree=62
num_leaves=3
num_cat=0
split_feature=43 18
split_gain=1.20497e+06 537688
threshold=927.15524291992199 1.0000000180025095e-35
decision_type=2 2
left_child=1 -1
right_child=-2 -3
leaf_value=-9.6475311660766607 8.8972995667230528 0.64364454854618425
leaf_weight=30 21 22
leaf_count=30 21 22
internal_value=-1.21127 -5.29357
internal_weight=73 52
internal_count=73 52
is_linear=0
shrinkage=0.05


Tree=63
num_leaves=3
num_cat=0
split_feature=1 37
split_gain=1.22909e+06 882292
threshold=57.245395660400398 3635.835815429688
decision_type=2 2
left_child=1 -1
right_child=-2 -3
leaf_value=-0.047923151346353388 7.317608229319255 -14.016538319587708
leaf_weight=26 27 20
leaf_count=26 27 20
internal_value=-1.1507 -6.12123
internal_weight=73 46
internal_count=73 46
is_linear=0
shrinkage=0.05


Tree=64
num_leaves=3
num_cat=0
split_feature=1 37
split_gain=1.10925e+06 796268
threshold=57.245395660400398 3635.835815429688
decision_type=2 2
left_child=1 -1
right_child=-2 -3
leaf_value=-0.045527150997748747 6.9517278265070033 -13.315711355209352
leaf_weight=26 27 20
leaf_count=26 27 20
internal_value=-1.09317 -5.81517
internal_weight=73 46
internal_count=73 46
is_linear=0
shrinkage=0.05


Tree=65
num_leaves=2
num_cat=0
split_feature=41
split_gain=2.47445e+06
threshold=1.0000000180025095e-35
decision_type=2
left_child=-1
right_child=-2
leaf_value=-7.2867400762362351 11.998829973977188
leaf_weight=39 29
leaf_count=39 29
internal_value=0.937988
internal_weight=68
internal_count=68
is_linear=0
shrinkage=0.05


Tree=66
num_leaves=2
num_cat=0
split_feature=41
split_gain=2.23319e+06
threshold=1.0000000180025095e-35
decision_type=2
left_child=-1
right_child=-2
leaf_value=-6.92240313872313 11.398888459698908
leaf_weight=39 29
leaf_count=39 29
internal_value=0.891089
internal_weight=68
internal_count=68
is_linear=0
shrinkage=0.05


Tree=67
num_leaves=2
num_cat=0
split_feature=41
split_gain=2.01545e+06
threshold=1.0000000180025095e-35
decision_type=2
left_child=-1
right_child=-2
leaf_value=-6.576282823391451 10.828944054965316
leaf_weight=39 29
leaf_count=39 29
internal_value=0.846535
internal_weight=68
internal_count=68
is_linear=0
shrinkage=0.05


Tree=68
num_leaves=3
num_cat=0
split_feature=43 21
split_gain=2.06113e+06 858319
threshold=767.65499877929699 3141.8886718750005
decision_type=2 2
left_child=1 -1
right_child=-2 -3
leaf_value=-12.083410328084774 14.28991672515869 1.3354927539825441
leaf_weight=22 20 26
leaf_count=22 20 26
internal_value=0.804208 -4.81484
internal_weight=68 48
internal_count=68 48
is_linear=0
shrinkage=0.05


Tree=69
num_leaves=3
num_cat=0
split_feature=43 21
split_gain=1.86017e+06 774633
threshold=767.65499877929699 3141.8886718750005
decision_type=2 2
left_child=1 -1
right_child=-2 -3
leaf_value=-11.479239784587513 13.575420885086061 1.268717989554772
leaf_weight=22 20 26
leaf_count=22 20 26
internal_value=0.763997 -4.5741
internal_weight=68 48
internal_count=68 48
is_linear=0
shrinkage=0.05


Tree=70
num_leaves=2
num_cat=0
split_feature=27
split_gain=1.897e+06
threshold=4258.6005859375009
decision_type=2
left_child=-1
right_child=-2
leaf_value=12.66913994471232 -4.1500768021533361
leaf_weight=30 38
leaf_count=30 38
internal_value=3.27017
internal_weight=68
internal_count=68
is_linear=0
shrinkage=0.05


Tree=71
num_leaves=3
num_cat=0
split_feature=41 1
split_gain=1.82886e+06 497771
threshold=423.34425354003912 52.970001220703132
decision_type=2 2
left_child=1 -1
right_child=-2 -3
leaf_value=-9.1928396600484845 13.2111730116385 1.8289442471095496
leaf_weight=20 27 21
leaf_count=20 27 21
internal_value=3.10666 -3.54754
internal_weight=68 41
internal_count=68 41
is_linear=0
shrinkage=0.05


Tree=72
num_leaves=2
num_cat=0
split_feature=27
split_gain=1.68389e+06
threshold=4258.6005859375009
decision_type=2
left_child=-1
right_child=-2
leaf_value=11.806637032032015 -4.0397114440014494
leaf_weight=30 38
leaf_count=30 38
internal_value=2.95132
internal_weight=68
internal_count=68
is_linear=0
shrinkage=0.05


Tree=73
num_leaves=2
num_cat=0
split_feature=41
split_gain=1.63018e+06
threshold=1.0000000180025095e-35
decision_type=2
left_child=-1
right_child=-2
leaf_value=-4.2824328002092003 11.261470693157566
leaf_weight=37 31
leaf_count=37 31
internal_value=2.80376
internal_weight=68
internal_count=68
is_linear=0
shrinkage=0.05


Tree=74
num_leaves=2
num_cat=0
split_feature=27
split_gain=1.49804e+06
threshold=4258.6005859375009
decision_type=2
left_child=-1
right_child=-2
leaf_value=11.015922603607178 -3.930391848714728
leaf_weight=30 38
leaf_count=30 38
internal_value=2.66357
internal_weight=68
internal_count=68
is_linear=0
shrinkage=0.05


Tree=75
num_leaves=3
num_cat=0
split_feature=33 35
split_gain=1.71113e+06 597267
threshold=3828.696655273438 6277.2465820312509
decision_type=2 2
left_child=1 -1
right_child=-2 -3
leaf_value=0.86003798194553538 11.129194336611292 -9.8494264559944469
leaf_weight=23 23 30
leaf_count=23 23 30
internal_value=-0.259611 -5.20192
internal_weight=76 53
internal_count=76 53
is_linear=0
shrinkage=0.05


Tree=76
num_leaves=3
num_cat=0
split_feature=33 34
split_gain=1.54429e+06 909396
threshold=3828.696655273438 1440.4822387695315
decision_type=2 2
left_child=1 -1
right_child=-2 -3
leaf_value=3.4711674261093139 10.572734163118447 -10.040611285513098
leaf_weight=20 23 33
leaf_count=20 23 33
internal_value=-0.246631 -4.94183
internal_weight=76 53
internal_count=76 53
is_linear=0
shrinkage=0.05


Tree=77
num_leaves=3
num_cat=0
split_feature=33 34
split_gain=1.39372e+06 820730
threshold=3828.696655273438 1440.4822387695315
decision_type=2 2
left_child=1 -1
right_child=-2 -3
leaf_value=3.2976090812683108 10.044097970879598 -9.5385808597911499
leaf_weight=20 23 33
leaf_count=20 23 33
internal_value=-0.234299 -4.69474
internal_weight=76 53
internal_count=76 53
is_linear=0
shrinkage=0.05


Tree=78
num_leaves=3
num_cat=0
split_feature=41 10
split_gain=1.17889e+06 444221
threshold=195.22125244140628 17.500000000000004
decision_type=2 2
left_child=1 -1
right_child=-2 -3
leaf_value=-0.74555272689232466 7.7051511271246556 -10.522924405052549
leaf_weight=26 29 21
leaf_count=26 29 21
internal_value=-0.222584 -5.11417
internal_weight=76 47
internal_count=76 47
is_linear=0
shrinkage=0.05


Tree=79
num_leaves=3
num_cat=0
split_feature=33 34
split_gain=1.24392e+06 728026
threshold=3828.696655273438 1440.4822387695315
decision_type=2 2
left_child=1 -1
right_child=-2 -3
leaf_value=3.1020825004577639 9.4988511790399972 -8.9874488816116802
leaf_weight=20 23 33
leaf_count=20 23 33
internal_value=-0.211455 -4.42536
internal_weight=76 53
internal_count=76 53
is_linear=0
shrinkage=0.05


Tree=80
num_leaves=2
num_cat=0
split_feature=41
split_gain=1.83327e+06
threshold=195.22125244140628
decision_type=2
left_child=-1
right_child=-2
leaf_value=-8.8835013071695972 8.0088476509883488
leaf_weight=36 29
leaf_count=36 29
internal_value=-1.34691
internal_weight=65
internal_count=65
is_linear=0
shrinkage=0.05


Tree=81
num_leaves=2
num_cat=0
split_feature=42
split_gain=1.65453e+06
threshold=0.070119827985763564
decision_type=2
left_child=-1
right_child=-2
leaf_value=-8.4393262810177276 7.6084054585160885
leaf_weight=36 29
leaf_count=36 29
internal_value=-1.27957
internal_weight=65
internal_count=65
is_linear=0
shrinkage=0.05


Tree=82
num_leaves=2
num_cat=0
split_feature=41
split_gain=1.5151e+06
threshold=423.34425354003912
decision_type=2
left_child=-1
right_child=-2
leaf_value=-7.4484741712227844 8.1337349084707409
leaf_weight=39 26
leaf_count=39 26
internal_value=-1.21559
internal_weight=65
internal_count=65
is_linear=0
shrinkage=0.05


Tree=83
num_leaves=2
num_cat=0
split_feature=37
split_gain=1.42316e+06
threshold=3666.8371582031255
decision_type=2
left_child=-1
right_child=-2
leaf_value=5.2812202505163244 -9.6595667443105171
leaf_weight=37 28
leaf_count=37 28
internal_value=-1.15481
internal_weight=65
internal_count=65
is_linear=0
shrinkage=0.05


Tree=84
num_leaves=2
num_cat=0
split_feature=41
split_gain=1.34799e+06
threshold=423.34425354003912
decision_type=2
left_child=-1
right_child=-2
leaf_value=-6.9761692083798925 7.7215775627356313
leaf_weight=39 26
leaf_count=39 26
internal_value=-1.09707
internal_weight=65
internal_count=65
is_linear=0
shrinkage=0.05


Tree=85
num_leaves=3
num_cat=0
split_feature=35 25
split_gain=1.47779e+06 418152
threshold=7221.4221191406259 4722.7741699218759
decision_type=2 2
left_child=1 -1
right_child=-2 -3
leaf_value=-2.4394506000555478 8.4822626819610587 -12.055893049240112
leaf_weight=26 25 20
leaf_count=26 25 20
internal_value=-1.30263 -6.62051
internal_weight=71 46
internal_count=71 46
is_linear=0
shrinkage=0.05


Tree=86
num_leaves=3
num_cat=0
split_feature=31 25
split_gain=1.4591e+06 433454
threshold=6695.5456542968759 4722.7741699218759
decision_type=2 2
left_child=1 -1
right_child=-2 -3
leaf_value=-2.1834917271775858 9.117241303817087 -11.821072177886963
leaf_weight=28 23 20
leaf_count=28 23 20
internal_value=-1.2375 -6.19915
internal_weight=71 48
internal_count=71 48
is_linear=0
shrinkage=0.05


Tree=87
num_leaves=3
num_cat=0
split_feature=33 43
split_gain=1.82806e+06 408388
threshold=3828.696655273438 -166.8659973144531
decision_type=2 2
left_child=1 -1
right_child=-2 -3
leaf_value=-12.186246218681337 10.414634652759718 -2.831471414225442
leaf_weight=20 23 28
leaf_count=20 23 28
internal_value=-1.17563 -6.72929
internal_weight=71 48
internal_count=71 48
is_linear=0
shrinkage=0.05


Tree=88
num_leaves=3
num_cat=0
split_feature=31 26
split_gain=1.2848e+06 302510
threshold=6695.5456542968759 66.500000000000014
decision_type=2 2
left_child=1 -1
right_child=-2 -3
leaf_value=-2.2720802607359709 8.5997576672097917 -10.273538412366596
leaf_weight=27 23 21
leaf_count=27 23 21
internal_value=-1.11685 -5.77272
internal_weight=71 48
internal_count=71 48
is_linear=0
shrinkage=0.05


Tree=89
num_leaves=3
num_cat=0
split_feature=31 3
split_gain=1.15953e+06 359009
threshold=6695.5456542968759 6.8623530864715585
decision_type=2 2
left_child=1 -1
right_child=-2 -3
leaf_value=-0.36766296472400428 8.1697696768719208 -9.1386673842157631
leaf_weight=20 23 28
leaf_count=20 23 28
internal_value=-1.061 -5.48408
internal_weight=71 48
internal_count=71 48
is_linear=0
shrinkage=0.05


Tree=90
num_leaves=3
num_cat=0
split_feature=22 42
split_gain=1.1389e+06 643534
threshold=51.000000000000007 -0.050412680953741067
decision_type=2 2
left_child=-1 -2
right_child=1 -3
leaf_value=-10.070117712020874 -0.50343859282232095 11.000454082489014
leaf_weight=20 31 20
leaf_count=20 31 20
internal_value=0.0422554 4.00789
internal_weight=71 51
internal_count=71 51
is_linear=0
shrinkage=0.05


Tree=91
num_leaves=3
num_cat=0
split_feature=22 24
split_gain=1.02785e+06 612273
threshold=51.000000000000007 66.500000000000014
decision_type=2 2
left_child=-1 -2
right_child=1 -3
leaf_value=-9.5666116333007807 -0.5928974736121394 10.628109194636345
leaf_weight=20 31 20
leaf_count=20 31 20
internal_value=0.0401427 3.8075
internal_weight=71 51
internal_count=71 51
is_linear=0
shrinkage=0.05


Tree=92
num_leaves=3
num_cat=0
split_feature=1 32
split_gain=1.01798e+06 853994
threshold=50.813249588012702 1969.4009399414065
decision_type=2 2
left_child=-1 -2
right_child=1 -3
leaf_value=-8.8969353375109765 -1.4319014779452619 11.99826701924205
leaf_weight=22 29 20
leaf_count=22 29 20
internal_value=0.0381355 4.0498
internal_weight=71 49
internal_count=71 49
is_linear=0
shrinkage=0.05


Tree=93
num_leaves=3
num_cat=0
split_feature=1 10
split_gain=918731 1.12718e+06
threshold=50.813249588012702 16.500000000000004
decision_type=2 2
left_child=-1 -2
right_child=1 -3
leaf_value=-8.4520886269482709 11.91020271881767 -3.2852490150011509
leaf_weight=22 23 26
leaf_count=22 23 26
internal_value=0.0362287 3.84731
internal_weight=71 49
internal_count=71 49
is_linear=0
shrinkage=0.05


Tree=94
num_leaves=3
num_cat=0
split_feature=43 10
split_gain=887203 834464
threshold=-166.8659973144531 16.500000000000004
decision_type=2 2
left_child=-1 -2
right_child=1 -3
leaf_value=-7.1006288192890317 10.992244214596957 -2.7933814639136907
leaf_weight=27 23 21
leaf_count=27 23 21
internal_value=0.0344173 4.41274
internal_weight=71 44
internal_count=71 44
is_linear=0
shrinkage=0.05


Tree=95
num_leaves=3
num_cat=0
split_feature=33 28
split_gain=856449 563355
threshold=3828.696655273438 75.000000000000014
decision_type=2 2
left_child=1 -1
right_child=-2 -3
leaf_value=-9.7204096585512172 8.0662920150756836 1.6419024323423703
leaf_weight=20 25 24
leaf_count=20 25 24
internal_value=0.676156 -3.52278
internal_weight=69 44
internal_count=69 44
is_linear=0
shrinkage=0.05


Tree=96
num_leaves=3
num_cat=0
split_feature=33 28
split_gain=772945 508428
threshold=3828.696655273438 75.000000000000014
decision_type=2 2
left_child=1 -1
right_child=-2 -3
leaf_value=-9.2343892240524301 7.6629772710800168 1.5598072548707327
leaf_weight=20 25 24
leaf_count=20 25 24
internal_value=0.642348 -3.34665
internal_weight=69 44
internal_count=69 44
is_linear=0
shrinkage=0.05


Tree=97
num_leaves=3
num_cat=0
split_feature=31 41
split_gain=772476 235182
threshold=6277.2465820312509 -296.32049560546869
decision_type=2 2
left_child=1 -1
right_child=-2 -3
leaf_value=-0.064128829132426873 7.2085085974799261 -7.5556484818458562
leaf_weight=22 27 20
leaf_count=22 27 20
internal_value=0.610231 -3.63152
internal_weight=69 42
internal_count=69 42
is_linear=0
shrinkage=0.05


Tree=98
num_leaves=2
num_cat=0
split_feature=30
split_gain=713284
threshold=1585.1167602539065
decision_type=2
left_child=-1
right_child=-2
leaf_value=-4.2875169447726682 5.8894314397465104
leaf_weight=36 33
leaf_count=36 33
internal_value=0.579719
internal_weight=69
internal_count=69
is_linear=0
shrinkage=0.05


Tree=99
num_leaves=3
num_cat=0
split_feature=9 30
split_gain=710438 1.72055e+06
threshold=2.5000000000000004 1612.5781250000002
decision_type=2 2
left_child=-1 -2
right_child=1 -3
leaf_value=-5.5886019383158008 -5.2523295970190143 15.239019362926484
leaf_weight=28 21 20
leaf_count=28 21 20
internal_value=0.550733 4.74345
internal_weight=69 41
internal_count=69 41
is_linear=0
shrinkage=0.05


Tree=100
num_leaves=3
num_cat=0
split_feature=37 41
split_gain=787228 739932
threshold=3666.8371582031255 -296.32049560546869
decision_type=2 2
left_child=1 -1
right_child=-2 -3
leaf_value=-0.97470133950312943 -5.541348730284593 11.876890482221333
leaf_weight=24 29 21
leaf_count=24 29 21
internal_value=0.88274 5.02271
internal_weight=74 45
internal_count=74 45
is_linear=0
shrinkage=0.05


Tree=101
num_leaves=3
num_cat=0
split_feature=37 41
split_gain=710473 667789
threshold=3666.8371582031255 -296.32049560546869
decision_type=2 2
left_child=1 -1
right_child=-2 -3
leaf_value=-0.92596629162629451 -5.2642811643666239 11.283045664003918
leaf_weight=24 29 21
leaf_count=24 29 21
internal_value=0.838603 4.77157
internal_weight=74 45
internal_count=74 45
is_linear=0
shrinkage=0.05


Tree=102
num_leaves=3
num_cat=0
split_feature=22 42
split_gain=743124 1.0917e+06
threshold=54.500000000000007 -0.29660011827945704
decision_type=2 2
left_child=-1 -2
right_child=1 -3
leaf_value=-5.4448728865590592 -3.5065124591191612 12.103827861944836
leaf_weight=29 21 24
leaf_count=29 21 24
internal_value=0.796673 4.819
internal_weight=74 45
internal_count=74 45
is_linear=0
shrinkage=0.05


Tree=103
num_leaves=3
num_cat=0
split_feature=22 22
split_gain=670670 999162
threshold=54.500000000000007 76.000000000000014
decision_type=2 2
left_child=-1 -2
right_child=1 -3
leaf_value=-5.1726291870248735 12.542905080886115 -2.3911943713823955
leaf_weight=29 21 24
leaf_count=29 21 24
internal_value=0.756839 4.57805
internal_weight=74 45
internal_count=74 45
is_linear=0
shrinkage=0.05


Tree=104
num_leaves=3
num_cat=0
split_feature=38 34
split_gain=633087 430032
threshold=1698.026062011719 1421.6672973632815
decision_type=2 2
left_child=1 -1
right_child=-2 -3
leaf_value=1.4564170554280282 8.0660677427337273 -7.7517604827880859
leaf_weight=32 21 21
leaf_count=32 21 21
internal_value=0.718997 -2.19211
internal_weight=74 53
internal_count=74 53
is_linear=0
shrinkage=0.05


Tree=105
num_leaves=3
num_cat=0
split_feature=39 21
split_gain=1.04675e+06 584428
threshold=7351.1286621093759 2904.1215820312505
decision_type=2 2
left_child=1 -1
right_child=-2 -3
leaf_value=-11.678637676239013 8.5025167465209961 -1.0700582697584824
leaf_weight=20 20 37
leaf_count=20 20 37
internal_value=-1.33915 -4.79237
internal_weight=77 57
internal_count=77 57
is_linear=0
shrinkage=0.05


Tree=106
num_leaves=3
num_cat=0
split_feature=39 21
split_gain=944692 527447
threshold=7351.1286621093759 2904.1215820312505
decision_type=2 2
left_child=1 -1
right_child=-2 -3
leaf_value=-11.094705638885499 8.07739107131958 -1.0165556311607362
leaf_weight=20 20 37
leaf_count=20 20 37
internal_value=-1.27219 -4.55275
internal_weight=77 57
internal_count=77 57
is_linear=0
shrinkage=0.05


Tree=107
num_leaves=3
num_cat=0
split_feature=39 22
split_gain=852585 476483
threshold=7351.1286621093759 54.500000000000007
decision_type=2 2
left_child=1 -1
right_child=-2 -3
leaf_value=-9.8832793650419823 7.6735214757919312 -0.56517381633029273
leaf_weight=23 20 34
leaf_count=23 20 34
internal_value=-1.20858 -4.32511
internal_weight=77 57
internal_count=77 57
is_linear=0
shrinkage=0.05


Tree=108
num_leaves=3
num_cat=0
split_feature=39 21
split_gain=769458 437816
threshold=7351.1286621093759 2904.1215820312505
decision_type=2 2
left_child=1 -1
right_child=-2 -3
leaf_value=-10.069101700782776 7.2898452472686772 -0.88710097509461494
leaf_weight=20 20 37
leaf_count=20 20 37
internal_value=-1.14815 -4.10886
internal_weight=77 57
internal_count=77 57
is_linear=0
shrinkage=0.05


Tree=109
num_leaves=3
num_cat=0
split_feature=37 37
split_gain=744372 798750
threshold=3666.8371582031255 3533.959838867188
decision_type=2 2
left_child=1 -1
right_child=-2 -3
leaf_value=-3.3631750569989287 -7.0792430570048666 9.8266034386374734
leaf_weight=24 31 22
leaf_count=24 31 22
internal_value=-1.09075 2.94498
internal_weight=77 46
internal_count=77 46
is_linear=0
shrinkage=0.05


Tree=110
num_leaves=3
num_cat=0
split_feature=26 22
split_gain=954630 741538
threshold=53.500000000000007 54.500000000000007
decision_type=2 2
left_child=-1 -2
right_child=1 -3
leaf_value=11.502379024624824 -8.0201534354168427 4.1971696147212283
leaf_weight=20 23 27
leaf_count=20 23 27
internal_value=2.27011 -1.4228
internal_weight=70 50
internal_count=70 50
is_linear=0
shrinkage=0.05


Tree=111
num_leaves=3
num_cat=0
split_feature=10 29
split_gain=935210 1.00206e+06
threshold=17.500000000000004 3791.9895019531255
decision_type=2 2
left_child=1 -1
right_child=-2 -3
leaf_value=-0.75219236850738536 -4.5167634439468385 15.075450489521026
leaf_weight=20 30 20
leaf_count=20 30 20
internal_value=2.1566 7.16163
internal_weight=70 40
internal_count=70 40
is_linear=0
shrinkage=0.05


Tree=112
num_leaves=3
num_cat=0
split_feature=41 23
split_gain=866042 251257
threshold=423.34425354003912 3108.9921875000005
decision_type=2 2
left_child=1 -1
right_child=-2 -3
leaf_value=-6.5481808710098264 8.8601680500166751 1.1951390407302165
leaf_weight=20 28 22
leaf_count=20 28 22
internal_value=2.04877 -2.49216
internal_weight=70 42
internal_count=70 42
is_linear=0
shrinkage=0.05


Tree=113
num_leaves=3
num_cat=0
split_feature=26 22
split_gain=849714 665147
threshold=53.500000000000007 54.500000000000007
decision_type=2 2
left_child=-1 -2
right_child=1 -3
leaf_value=10.656518622636796 -7.7860367567642887 3.7848854206226492
leaf_weight=20 23 27
leaf_count=20 23 27
internal_value=1.94633 -1.53774
internal_weight=70 50
internal_count=70 50
is_linear=0
shrinkage=0.05


Tree=114
num_leaves=3
num_cat=0
split_feature=10 27
split_gain=821005 900078
threshold=17.500000000000004 4589.0249023437509
decision_type=2 2
left_child=1 -1
right_child=-2 -3
leaf_value=14.038822383880614 -4.4036209424336752 -0.96182782649993903
leaf_weight=20 30 20
leaf_count=20 30 20
internal_value=1.84902 6.5385
internal_weight=70 40
internal_count=70 40
is_linear=0
shrinkage=0.05


Tree=115
num_leaves=3
num_cat=0
split_feature=41 30
split_gain=1.02227e+06 603188
threshold=423.34425354003912 1437.9249267578127
decision_type=2 2
left_child=1 -1
right_child=-2 -3
leaf_value=2.5963386925784029 8.4269171116607531 -8.5569063398573135
leaf_weight=22 28 27
leaf_count=22 28 27
internal_value=0.805671 -3.54933
internal_weight=77 49
internal_count=77 49
is_linear=0
shrinkage=0.05


Tree=116
num_leaves=3
num_cat=0
split_feature=41 30
split_gain=922597 544377
threshold=423.34425354003912 1437.9249267578127
decision_type=2 2
left_child=1 -1
right_child=-2 -3
leaf_value=2.4665219025178389 8.0055712529591148 -8.1290614022148997
leaf_weight=22 28 27
leaf_count=22 28 27
internal_value=0.765387 -3.37186
internal_weight=77 49
internal_count=77 49
is_linear=0
shrinkage=0.05


Tree=117
num_leaves=3
num_cat=0
split_feature=0 21
split_gain=834697 529228
threshold=13.500000000000002 3061.862915039063
decision_type=2 2
left_child=1 -1
right_child=-2 -3
leaf_value=-8.2142776613650117 9.5155502176284781 1.606042985355153
leaf_weight=23 20 34
leaf_count=23 20 34
internal_value=0.727118 -2.35654
internal_weight=77 57
internal_count=77 57
is_linear=0
shrinkage=0.05


Tree=118
num_leaves=3
num_cat=0
split_feature=41 30
split_gain=820874 499147
threshold=423.34425354003912 1437.9249267578127
decision_type=2 2
left_child=1 -1
right_child=-2 -3
leaf_value=2.3788308100266891 7.5201520451477597 -7.7670316413596829
leaf_weight=22 28 27
leaf_count=22 28 27
internal_value=0.690762 -3.21175
internal_weight=77 49
internal_count=77 49
is_linear=0
shrinkage=0.05


Tree=119
num_leaves=3
num_cat=0
split_feature=41 37
split_gain=740839 397051
threshold=423.34425354003912 3666.8371582031255
decision_type=2 2
left_child=1 -1
right_child=-2 -3
leaf_value=0.68659995342123104 7.144144523143769 -8.4709100627899172
leaf_weight=29 28 20
leaf_count=29 28 20
internal_value=0.656224 -3.05116
internal_weight=77 49
internal_count=77 49
is_linear=0
shrinkage=0.05


Tree=120
num_leaves=3
num_cat=0
split_feature=38 1
split_gain=959692 414828
threshold=1675.2998046875002 56.913751602172859
decision_type=2 2
left_child=1 -1
right_child=-2 -3
leaf_value=-9.1709323476862021 7.3623745793881632 0.078371715545654308
leaf_weight=27 23 22
leaf_count=27 23 22
internal_value=-1.06328 -5.01818
internal_weight=72 49
internal_count=72 49
is_linear=0
shrinkage=0.05


Tree=121
num_leaves=3
num_cat=0
split_feature=38 1
split_gain=866122 374383
threshold=1675.2998046875002 56.913751602172859
decision_type=2 2
left_child=1 -1
right_child=-2 -3
leaf_value=-8.7123856089733263 6.9942556878794795 0.074453163146972659
leaf_weight=27 23 22
leaf_count=27 23 22
internal_value=-1.01012 -4.76727
internal_weight=72 49
internal_count=72 49
is_linear=0
shrinkage=0.05


Tree=122
num_leaves=3
num_cat=0
split_feature=38 2
split_gain=781675 350406
threshold=1675.2998046875002 60.500000000000007
decision_type=2 2
left_child=1 -1
right_child=-2 -3
leaf_value=-0.7122199023211444 6.6445428620214049 -9.2130310795523904
leaf_weight=27 23 22
leaf_count=27 23 22
internal_value=-0.959613 -4.52891
internal_weight=72 49
internal_count=72 49
is_linear=0
shrinkage=0.05


Tree=123
num_leaves=3
num_cat=0
split_feature=12 21
split_gain=710109 369628
threshold=2.5000000000000004 3061.862915039063
decision_type=2 2
left_child=1 -1
right_child=-2 -3
leaf_value=-9.6143305397033689 6.1106971671183912 -0.71455886363983157
leaf_weight=20 24 28
leaf_count=20 24 28
internal_value=-0.911632 -4.4228
internal_weight=72 48
internal_count=72 48
is_linear=0
shrinkage=0.05


Tree=124
num_leaves=3
num_cat=0
split_feature=38 5
split_gain=641311 327680
threshold=1675.2998046875002 0.55902779102325451
decision_type=2 2
left_child=1 -1
right_child=-2 -3
leaf_value=0.074088919162750247 6.0216183229430547 -8.1052402114868158
leaf_weight=24 23 25
leaf_count=24 23 25
internal_value=-0.866051 -4.09904
internal_weight=72 49
internal_count=72 49
is_linear=0
shrinkage=0.05


Tree=125
num_leaves=3
num_cat=0
split_feature=43 29
split_gain=827846 798175
threshold=-166.8659973144531 3675.870727539063
decision_type=2 2
left_child=-1 -2
right_child=1 -3
leaf_value=-6.0152181871235371 -1.4514281706809999 11.949665813446046
leaf_weight=32 25 20
leaf_count=32 25 20
internal_value=0.132735 4.50461
internal_weight=77 45
internal_count=77 45
is_linear=0
shrinkage=0.05


Tree=126
num_leaves=3
num_cat=0
split_feature=1 0
split_gain=749685 708724
threshold=50.155138015747077 9.5000000000000018
decision_type=2 2
left_child=-1 -2
right_child=1 -3
leaf_value=-7.9304381285394943 -4.3992900824546819 7.3398503979047138
leaf_weight=21 20 36
leaf_count=21 20 36
internal_value=0.126099 3.1473
internal_weight=77 56
internal_count=77 56
is_linear=0
shrinkage=0.05


Tree=127
num_leaves=3
num_cat=0
split_feature=43 39
split_gain=718106 761975
threshold=-166.8659973144531 6611.1989746093759
decision_type=2 2
left_child=-1 -2
right_child=1 -3
leaf_value=-5.6061903987079864 -2.7639227503821964 10.277691596746445
leaf_weight=32 21 24
leaf_count=32 21 24
internal_value=0.119794 4.1916
internal_weight=77 45
internal_count=77 45
is_linear=0
shrinkage=0.05


Tree=128
num_leaves=3
num_cat=0
split_feature=1 29
split_gain=646858 1.07507e+06
threshold=50.155138015747077 3675.870727539063
decision_type=2 2
left_child=-1 -2
right_child=1 -3
leaf_value=-7.3698481832231799 -3.5292350061734519 10.361799260286185
leaf_weight=21 30 26
leaf_count=21 30 26
internal_value=0.113804 2.92017
internal_weight=77 56
internal_count=77 56
is_linear=0
shrinkage=0.05


Tree=129
num_leaves=3
num_cat=0
split_feature=43 29
split_gain=632737 637182
threshold=-166.8659973144531 3675.870727539063
decision_type=2 2
left_child=-1 -2
right_child=1 -3
leaf_value=-5.2667493142187602 -1.3913381810188294 10.582210422754288
leaf_weight=32 25 20
leaf_count=32 25 20
internal_value=0.108114 3.93024
internal_weight=77 45
internal_count=77 45
is_linear=0
shrinkage=0.05


Tree=130
num_leaves=3
num_cat=0
split_feature=4 23
split_gain=461347 311800
threshold=0.60769233107566845 3225.5212402343755
decision_type=2 2
left_child=1 -1
right_child=-2 -3
leaf_value=-2.8638246944972447 -6.8597120314836504 5.5629436653593309
leaf_weight=21 26 23
leaf_count=21 26 23
internal_value=-1.57922 1.54108
internal_weight=70 44
internal_count=70 44
is_linear=0
shrinkage=0.05


Tree=131
num_leaves=3
num_cat=0
split_feature=5 23
split_gain=564888 546851
threshold=0.55902779102325451 3666.5002441406255
decision_type=2 2
left_child=1 -1
right_child=-2 -3
leaf_value=-3.3580255099705294 -6.8409150933397234 8.1943604707717892
leaf_weight=21 29 20
leaf_count=21 29 20
internal_value=-1.50026 2.27728
internal_weight=70 41
internal_count=70 41
is_linear=0
shrinkage=0.05


Tree=132
num_leaves=3
num_cat=0
split_feature=4 8
split_gain=409758 287246
threshold=0.60769233107566845 0.28174604475498205
decision_type=2 2
left_child=1 -1
right_child=-2 -3
leaf_value=5.9409087109565739 -6.401747566003066 -2.172487904628118
leaf_weight=20 26 24
leaf_count=20 26 24
internal_value=-1.42524 1.51542
internal_weight=70 44
internal_count=70 44
is_linear=0
shrinkage=0.05


Tree=133
num_leaves=3
num_cat=0
split_feature=5 24
split_gain=510019 539139
threshold=0.55902779102325451 60.500000000000007
decision_type=2 2
left_child=1 -1
right_child=-2 -3
leaf_value=-3.3600224455197658 -6.428640677189005 8.1106211251020426
leaf_weight=21 29 20
leaf_count=21 29 20
internal_value=-1.35398 2.23541
internal_weight=70 41
internal_count=70 41
is_linear=0
shrinkage=0.05


Tree=134
num_leaves=3
num_cat=0
split_feature=5 24
split_gain=460292 486573
threshold=0.55902779102325451 60.500000000000007
decision_type=2 2
left_child=1 -1
right_child=-2 -3
leaf_value=-3.1920212825139362 -6.1072085972489987 7.7050903534889219
leaf_weight=21 29 20
leaf_count=21 29 20
internal_value=-1.28628 2.12364
internal_weight=70 41
internal_count=70 41
is_linear=0
shrinkage=0.05


Tree=135
num_leaves=3
num_cat=0
split_feature=24 1
split_gain=527089 407975
threshold=66.500000000000014 56.913751602172859
decision_type=2 2
left_child=1 -1
right_child=-2 -3
leaf_value=-6.6771156311035158 6.92825422167778 3.1786920025235132
leaf_weight=21 30 21
leaf_count=21 30 21
internal_value=1.8664 -1.74921
internal_weight=72 42
internal_count=72 42
is_linear=0
shrinkage=0.05


Tree=136
num_leaves=3
num_cat=0
split_feature=31 4
split_gain=555580 481603
threshold=6695.5456542968759 0.51470589637756359
decision_type=2 2
left_child=1 -1
right_child=-2 -3
leaf_value=-6.8526974723452616 8.6177461455265689 3.0198558644453684
leaf_weight=21 21 30
leaf_count=21 21 30
internal_value=1.77308 -1.04531
internal_weight=72 51
internal_count=72 51
is_linear=0
shrinkage=0.05


Tree=137
num_leaves=3
num_cat=0
split_feature=31 4
split_gain=501411 434647
threshold=6695.5456542968759 0.51470589637756359
decision_type=2 2
left_child=1 -1
right_child=-2 -3
leaf_value=-6.5100626082647413 8.1868592205501738 2.8688630970319116
leaf_weight=21 21 30
leaf_count=21 21 30
internal_value=1.68443 -0.993047
internal_weight=72 51
internal_count=72 51
is_linear=0
shrinkage=0.05


Tree=138
num_leaves=3
num_cat=0
split_feature=24 32
split_gain=466482 402056
threshold=66.500000000000014 1969.4009399414065
decision_type=2 2
left_child=1 -1
right_child=-2 -3
leaf_value=-6.6932166530972443 6.3621605674425759 3.0908295994713195
leaf_weight=21 30 21
leaf_count=21 30 21
internal_value=1.6002 -1.80119
internal_weight=72 42
internal_count=72 42
is_linear=0
shrinkage=0.05


Tree=139
num_leaves=3
num_cat=0
split_feature=2 30
split_gain=433295 282731
threshold=79.500000000000014 1437.9249267578127
decision_type=2 2
left_child=1 -1
right_child=-2 -3
leaf_value=2.6623425854576959 7.774544286727906 -4.7168073577880865
leaf_weight=27 20 25
leaf_count=27 20 25
internal_value=1.52019 -0.885326
internal_weight=72 52
internal_count=72 52
is_linear=0
shrinkage=0.05


Tree=140
num_leaves=3
num_cat=0
split_feature=43 39
split_gain=634509 778370
threshold=-166.8659973144531 6611.1989746093759
decision_type=2 2
left_child=-1 -2
right_child=1 -3
leaf_value=-6.0374175863265993 -3.4546630191802978 9.7791264415383345
leaf_weight=25 20 25
leaf_count=25 20 25
internal_value=0.349278 3.89744
internal_weight=70 45
internal_count=70 45
is_linear=0
shrinkage=0.05


Tree=141
num_leaves=3
num_cat=0
split_feature=43 39
split_gain=572645 702479
threshold=-166.8659973144531 6611.1989746093759
decision_type=2 2
left_child=-1 -2
right_child=1 -3
leaf_value=-5.7355467783212664 -3.2819298672676087 9.29017013502121
leaf_weight=25 20 25
leaf_count=25 20 25
internal_value=0.331814 3.70257
internal_weight=70 45
internal_count=70 45
is_linear=0
shrinkage=0.05


Tree=142
num_leaves=3
num_cat=0
split_feature=4 43
split_gain=553718 806471
threshold=0.51470589637756359 491.14799499511724
decision_type=2 2
left_child=-1 -2
right_child=1 -3
leaf_value=-5.6510292367935184 -3.5259227287201655 9.8910730640093494
leaf_weight=25 21 24
leaf_count=25 21 24
internal_value=0.315224 3.62981
internal_weight=70 45
internal_count=70 45
is_linear=0
shrinkage=0.05


Tree=143
num_leaves=3
num_cat=0
split_feature=3 37
split_gain=527543 285468
threshold=7.2656250000000009 3597.877319335938
decision_type=2 2
left_child=1 -1
right_child=-2 -3
leaf_value=1.6857355377890848 6.9298409609567564 -5.9870546186411824
leaf_weight=22 21 27
leaf_count=22 21 27
internal_value=0.299462 -2.54213
internal_weight=70 49
internal_count=70 49
is_linear=0
shrinkage=0.05


Tree=144
num_leaves=3
num_cat=0
split_feature=23 1
split_gain=487391 496725
threshold=4589.0249023437509 56.913751602172859
decision_type=2 2
left_child=1 -1
right_child=-2 -3
leaf_value=-7.772323738286893 5.7119846887313406 2.8969202518463137
leaf_weight=24 26 20
leaf_count=24 26 20
internal_value=0.284489 -2.92267
internal_weight=70 44
internal_count=70 44
is_linear=0
shrinkage=0.05


Tree=145
num_leaves=3
num_cat=0
split_feature=37 25
split_gain=493504 313444
threshold=3666.8371582031255 3394.2299804687505
decision_type=2 2
left_child=1 -1
right_child=-2 -3
leaf_value=6.7735643720626832 -6.7217382748921715 -2.0786077713966371
leaf_weight=20 24 20
leaf_count=20 24 20
internal_value=-1.05348 2.34748
internal_weight=64 40
internal_count=64 40
is_linear=0
shrinkage=0.05


Tree=146
num_leaves=3
num_cat=0
split_feature=3 3
split_gain=462455 443493
threshold=7.1818680763244638 6.6781251430511483
decision_type=2 2
left_child=1 -1
right_child=-2 -3
leaf_value=1.6325987148284913 5.3033402299880983 -8.4487597312157359
leaf_weight=20 20 24
leaf_count=20 20 24
internal_value=-1.0008 -3.86632
internal_weight=64 44
internal_count=64 44
is_linear=0
shrinkage=0.05


Tree=147
num_leaves=2
num_cat=0
split_feature=43
split_gain=481477
threshold=-166.8659973144531
decision_type=2
left_child=-1
right_child=-2
leaf_value=-6.3674060478210457 2.5214427581200236
leaf_weight=25 39
leaf_count=25 39
internal_value=-0.950764
internal_weight=64
internal_count=64
is_linear=0
shrinkage=0.05


Tree=148
num_leaves=3
num_cat=0
split_feature=37 25
split_gain=445782 288271
threshold=3666.8371582031255 3394.2299804687505
decision_type=2 2
left_child=1 -1
right_child=-2 -3
leaf_value=6.5737490725517276 -6.2904544378320377 -1.9155258345603945
leaf_weight=20 24 20
leaf_count=20 24 20
internal_value=-0.903226 2.32911
internal_weight=64 40
internal_count=64 40
is_linear=0
shrinkage=0.05


Tree=149
num_leaves=2
num_cat=0
split_feature=43
split_gain=435538
threshold=-166.8659973144531
decision_type=2
left_child=-1
right_child=-2
leaf_value=-6.009817960262299 2.4443419359051268
leaf_weight=25 39
leaf_count=25 39
internal_value=-0.858064
internal_weight=64
internal_count=64
is_linear=0
shrinkage=0.05


Tree=150
num_leaves=3
num_cat=0
split_feature=43 6
split_gain=630257 530572
threshold=-166.8659973144531 0.34523810446262365
decision_type=2 2
left_child=-1 -2
right_child=1 -3
leaf_value=-5.9245238322478073 -1.5238422092937289 9.8552972316741947
leaf_weight=26 21 20
leaf_count=26 21 20
internal_value=0.165189 4.02696
internal_weight=67 41
internal_count=67 41
is_linear=0
shrinkage=0.05


Tree=151
num_leaves=3
num_cat=0
split_feature=23 37
split_gain=631823 404412
threshold=4589.0249023437509 3597.877319335938
decision_type=2 2
left_child=1 -1
right_child=-2 -3
leaf_value=2.2216024243831636 7.3431340126764217 -7.2355236115363928
leaf_weight=20 21 26
leaf_count=20 21 26
internal_value=0.156929 -3.12373
internal_weight=67 46
internal_count=67 46
is_linear=0
shrinkage=0.05


Tree=152
num_leaves=3
num_cat=0
split_feature=43 6
split_gain=581875 475047
threshold=-166.8659973144531 0.34523810446262365
decision_type=2 2
left_child=-1 -2
right_child=1 -3
leaf_value=-5.7022235998740562 -1.3926599377677555 9.3746106815338148
leaf_weight=26 21 20
leaf_count=26 21 20
internal_value=0.149083 3.85967
internal_weight=67 41
internal_count=67 41
is_linear=0
shrinkage=0.05


Tree=153
num_leaves=3
num_cat=0
split_feature=23 37
split_gain=571976 372150
threshold=4589.0249023437509 3597.877319335938
decision_type=2 2
left_child=1 -1
right_child=-2 -3
leaf_value=2.1479000091552733 6.9790257862636027 -6.9241700924359835
leaf_weight=20 21 26
leaf_count=20 21 26
internal_value=0.141629 -2.97979
internal_weight=67 46
internal_count=67 46
is_linear=0
shrinkage=0.05


Tree=154
num_leaves=3
num_cat=0
split_feature=23 37
split_gain=516208 335866
threshold=4589.0249023437509 3597.877319335938
decision_type=2 2
left_child=1 -1
right_child=-2 -3
leaf_value=2.0405050224065784 6.6300740287417455 -6.5779615383881795
leaf_weight=20 21 26
leaf_count=20 21 26
internal_value=0.134547 -2.8308
internal_weight=67 46
internal_count=67 46
is_linear=0
shrinkage=0.05


Tree=155
num_leaves=3
num_cat=0
split_feature=41 30
split_gain=819324 200571
threshold=1517.633239746094 1437.9249267578127
decision_type=2 2
left_child=1 -1
right_child=-2 -3
leaf_value=-0.21260684013366699 7.9444241712242363 -6.7212220866104664
leaf_weight=20 20 29
leaf_count=20 20 29
internal_value=-0.583755 -4.06464
internal_weight=69 49
internal_count=69 49
is_linear=0
shrinkage=0.05


Tree=156
num_leaves=3
num_cat=0
split_feature=41 23
split_gain=739440 327268
threshold=1517.633239746094 3010.1662597656255
decision_type=2 2
left_child=1 -1
right_child=-2 -3
leaf_value=-8.7818974733352668 7.5472027802467352 -0.46797415418871524
leaf_weight=20 20 29
leaf_count=20 20 29
internal_value=-0.554567 -3.86141
internal_weight=69 49
internal_count=69 49
is_linear=0
shrinkage=0.05


Tree=157
num_leaves=3
num_cat=0
split_feature=41 30
split_gain=667344 182740
threshold=1517.633239746094 1437.9249267578127
decision_type=2 2
left_child=1 -1
right_child=-2 -3
leaf_value=0.00848546028137207 7.1698426532745358 -6.2040845920299663
leaf_weight=20 20 29
leaf_count=20 20 29
internal_value=-0.526839 -3.66834
internal_weight=69 49
internal_count=69 49
is_linear=0
shrinkage=0.05


Tree=158
num_leaves=3
num_cat=0
split_feature=41 23
split_gain=602278 297004
threshold=1517.633239746094 3010.1662597656255
decision_type=2 2
left_child=1 -1
right_child=-2 -3
leaf_value=-8.1723812842369092 6.8113504505157465 -0.25219573008603063
leaf_weight=20 20 29
leaf_count=20 20 29
internal_value=-0.500497 -3.48492
internal_weight=69 49
internal_count=69 49
is_linear=0
shrinkage=0.05


Tree=159
num_leaves=3
num_cat=0
split_feature=41 5
split_gain=543556 179625
threshold=1517.633239746094 0.53393667936325084
decision_type=2 2
left_child=1 -1
right_child=-2 -3
leaf_value=-6.8062990597316206 6.4707833659648903 -0.6889628797769547
leaf_weight=21 20 28
leaf_count=21 20 28
internal_value=-0.475472 -3.31068
internal_weight=69 49
internal_count=69 49
is_linear=0
shrinkage=0.05


Tree=160
num_leaves=3
num_cat=0
split_feature=31 0
split_gain=602882 358656
threshold=6277.2465820312509 10.500000000000002
decision_type=2 2
left_child=1 -1
right_child=-2 -3
leaf_value=1.5643670988082885 7.0325632593848484 -7.79133317527317
leaf_weight=20 22 21
leaf_count=20 22 21
internal_value=0.355329 -3.22758
internal_weight=63 41
internal_count=63 41
is_linear=0
shrinkage=0.05


Tree=161
num_leaves=3
num_cat=0
split_feature=31 0
split_gain=544101 323687
threshold=6277.2465820312509 10.500000000000002
decision_type=2 2
left_child=1 -1
right_child=-2 -3
leaf_value=1.4861487245559692 6.6809351254593246 -7.4017665386199951
leaf_weight=20 22 21
leaf_count=20 22 21
internal_value=0.337563 -3.0662
internal_weight=63 41
internal_count=63 41
is_linear=0
shrinkage=0.05


Tree=162
num_leaves=3
num_cat=0
split_feature=31 0
split_gain=491051 292128
threshold=6277.2465820312509 10.500000000000002
decision_type=2 2
left_child=1 -1
right_child=-2 -3
leaf_value=1.41184130191803 6.3468884132125165 -7.0316781044006351
leaf_weight=20 22 21
leaf_count=20 22 21
internal_value=0.320685 -2.91289
internal_weight=63 41
internal_count=63 41
is_linear=0
shrinkage=0.05


Tree=163
num_leaves=2
num_cat=0
split_feature=43
split_gain=481113
threshold=-166.8659973144531
decision_type=2
left_child=-1
right_child=-2
leaf_value=-4.9077475070953369 3.9674165372107484
leaf_weight=26 37
leaf_count=26 37
internal_value=0.30465
internal_weight=63
internal_count=63
is_linear=0
shrinkage=0.05


Tree=164
num_leaves=3
num_cat=0
split_feature=11 23
split_gain=432450 501809
threshold=8.5000000000000018 4589.0249023437509
decision_type=2 2
left_child=1 -1
right_child=-2 -3
leaf_value=-7.8507754526355047 6.1478693825857986 3.0922561228275303
leaf_weight=22 21 20
leaf_count=22 21 20
internal_value=0.289418 -2.63981
internal_weight=63 42
internal_count=63 42
is_linear=0
shrinkage=0.05


Tree=165
num_leaves=3
num_cat=0
split_feature=21 24
split_gain=601208 475125
threshold=2596.3139648437505 66.500000000000014
decision_type=2 2
left_child=-1 -2
right_child=1 -3
leaf_value=-7.4289406821841286 -1.5811481756823405 8.3679375330607098
leaf_weight=21 28 21
leaf_count=21 28 21
internal_value=-0.35076 2.68275
internal_weight=70 49
internal_count=70 49
is_linear=0
shrinkage=0.05


Tree=166
num_leaves=3
num_cat=0
split_feature=21 24
split_gain=542590 428800
threshold=2596.3139648437505 66.500000000000014
decision_type=2 2
left_child=-1 -2
right_child=1 -3
leaf_value=-7.0574936821347194 -1.5020907887390682 7.9495407762981607
leaf_weight=21 28 21
leaf_count=21 28 21
internal_value=-0.333222 2.54861
internal_weight=70 49
internal_count=70 49
is_linear=0
shrinkage=0.05


Tree=167
num_leaves=3
num_cat=0
split_feature=21 24
split_gain=489687 386992
threshold=2596.3139648437505 66.500000000000014
decision_type=2 2
left_child=-1 -2
right_child=1 -3
leaf_value=-6.7046189353579564 -1.4269861817359926 7.5520635729744328
leaf_weight=21 28 21
leaf_count=21 28 21
internal_value=-0.316561 2.42118
internal_weight=70 49
internal_count=70 49
is_linear=0
shrinkage=0.05


Tree=168
num_leaves=3
num_cat=0
split_feature=21 31
split_gain=441943 356916
threshold=2596.3139648437505 6277.2465820312509
decision_type=2 2
left_child=-1 -2
right_child=1 -3
leaf_value=-6.3693879354567757 -1.3954862509454999 7.227592949640183
leaf_weight=21 28 21
leaf_count=21 28 21
internal_value=-0.300733 2.30012
internal_weight=70 49
internal_count=70 49
is_linear=0
shrinkage=0.05


Tree=169
num_leaves=3
num_cat=0
split_feature=21 24
split_gain=398853 349260
threshold=2596.3139648437505 66.500000000000014
decision_type=2 2
left_child=-1 -2
right_child=1 -3
leaf_value=-6.050918524605887 -1.4706428802439147 7.0594543689773195
leaf_weight=21 28 21
leaf_count=21 28 21
internal_value=-0.285696 2.18511
internal_weight=70 49
internal_count=70 49
is_linear=0
shrinkage=0.05


Tree=170
num_leaves=3
num_cat=0
split_feature=33 21
split_gain=576567 296604
threshold=3828.696655273438 3141.8886718750005
decision_type=2 2
left_child=1 -1
right_child=-2 -3
leaf_value=-6.4620208960313068 6.3871007823027099 1.5273165475754511
leaf_weight=26 26 21
leaf_count=26 26 21
internal_value=0.412681 -2.89232
internal_weight=73 47
internal_count=73 47
is_linear=0
shrinkage=0.05


Tree=171
num_leaves=3
num_cat=0
split_feature=33 30
split_gain=520352 231720
threshold=3828.696655273438 1561.639831542969
decision_type=2 2
left_child=1 -1
right_child=-2 -3
leaf_value=0.54569540977478026 6.0677457424310539 -6.4901969996365638
leaf_weight=25 26 22
leaf_count=25 26 22
internal_value=0.392047 -2.7477
internal_weight=73 47
internal_count=73 47
is_linear=0
shrinkage=0.05


Tree=172
num_leaves=3
num_cat=0
split_feature=33 21
split_gain=469617 272340
threshold=3828.696655273438 3141.8886718750005
decision_type=2 2
left_child=1 -1
right_child=-2 -3
leaf_value=-6.0308990735274097 5.7643584526502174 1.6246914659227647
leaf_weight=26 26 21
leaf_count=26 26 21
internal_value=0.372445 -2.61032
internal_weight=73 47
internal_count=73 47
is_linear=0
shrinkage=0.05


Tree=173
num_leaves=3
num_cat=0
split_feature=33 21
split_gain=423830 245787
threshold=3828.696655273438 3141.8886718750005
decision_type=2 2
left_child=1 -1
right_child=-2 -3
leaf_value=-5.729354063364176 5.4761403514788709 1.5434569404238747
leaf_weight=26 26 21
leaf_count=26 26 21
internal_value=0.353822 -2.4798
internal_weight=73 47
internal_count=73 47
is_linear=0
shrinkage=0.05


Tree=174
num_leaves=3
num_cat=0
split_feature=33 3
split_gain=382506 224106
threshold=3828.696655273438 6.7900002002716073
decision_type=2 2
left_child=1 -1
right_child=-2 -3
leaf_value=1.6557609272003173 5.2023335187481008 -5.3273444196692221
leaf_weight=20 26 27
leaf_count=20 26 27
internal_value=0.336131 -2.35581
internal_weight=73 47
internal_count=73 47
is_linear=0
shrinkage=0.05


Tree=175
num_leaves=3
num_cat=0
split_feature=22 35
split_gain=325910 643647
threshold=51.000000000000007 6695.5456542968759
decision_type=2 2
left_child=-1 -2
right_child=1 -3
leaf_value=-5.0612393186642572 -3.8779917385267177 8.0845846934752039
leaf_weight=26 23 22
leaf_count=26 23 22
internal_value=-0.60458 1.97038
internal_weight=71 45
internal_count=71 45
is_linear=0
shrinkage=0.05


Tree=176
num_leaves=3
num_cat=0
split_feature=22 35
split_gain=294134 580891
threshold=51.000000000000007 6695.5456542968759
decision_type=2 2
left_child=-1 -2
right_child=1 -3
leaf_value=-4.8081773464496322 -3.68409217544224 7.6803553364493631
leaf_weight=26 23 22
leaf_count=26 23 22
internal_value=-0.574351 1.87186
internal_weight=71 45
internal_count=71 45
is_linear=0
shrinkage=0.05


Tree=177
num_leaves=3
num_cat=0
split_feature=22 35
split_gain=265456 524254
threshold=51.000000000000007 6695.5456542968759
decision_type=2 2
left_child=-1 -2
right_child=1 -3
leaf_value=-4.5677684242908771 -3.4998875250634942 7.2963376435366545
leaf_weight=26 23 22
leaf_count=26 23 22
internal_value=-0.545633 1.77827
internal_weight=71 45
internal_count=71 45
is_linear=0
shrinkage=0.05


Tree=178
num_leaves=3
num_cat=0
split_feature=37 5
split_gain=298536 254081
threshold=3666.8371582031255 0.53393667936325084
decision_type=2 2
left_child=1 -1
right_child=-2 -3
leaf_value=-1.8359768277122861 -4.5362104198762347 5.8530198444019668
leaf_weight=21 28 22
leaf_count=21 28 22
internal_value=-0.518352 2.09793
internal_weight=71 43
internal_count=71 43
is_linear=0
shrinkage=0.05


Tree=179
num_leaves=3
num_cat=0
split_feature=37 5
split_gain=269429 229308
threshold=3666.8371582031255 0.53393667936325084
decision_type=2 2
left_child=1 -1
right_child=-2 -3
leaf_value=-1.7441778273809527 -4.3093998295920235 5.5603688586841935
leaf_weight=21 28 22
leaf_count=21 28 22
internal_value=-0.492434 1.99303
internal_weight=71 43
internal_count=71 43
is_linear=0
shrinkage=0.05


Tree=180
num_leaves=3
num_cat=0
split_feature=1 10
split_gain=381113 642851
threshold=50.155138015747077 17.500000000000004
decision_type=2 2
left_child=-1 -2
right_child=1 -3
leaf_value=-3.7563195488669656 9.081238032238824 -2.6556209325790405
leaf_weight=22 28 20
leaf_count=22 28 20
internal_value=1.69319 4.19088
internal_weight=70 48
internal_count=70 48
is_linear=0
shrinkage=0.05


Tree=181
num_leaves=3
num_cat=0
split_feature=1 23
split_gain=343955 340640
threshold=50.155138015747077 3225.5212402343755
decision_type=2 2
left_child=-1 -2
right_child=1 -3
leaf_value=-3.5685036875984886 -0.59768583557822497 7.8558931357585466
leaf_weight=22 22 26
leaf_count=22 22 26
internal_value=1.60853 3.98134
internal_weight=70 48
internal_count=70 48
is_linear=0
shrinkage=0.05


Tree=182
num_leaves=3
num_cat=0
split_feature=42 35
split_gain=340786 363065
threshold=-0.34571744501590723 6695.5456542968759
decision_type=2 2
left_child=-1 -2
right_child=1 -3
leaf_value=-3.9879957389831548 0.25572475274403889 8.9527686071395873
leaf_weight=20 30 20
leaf_count=20 30 20
internal_value=1.5281 3.73454
internal_weight=70 50
internal_count=70 50
is_linear=0
shrinkage=0.05


Tree=183
num_leaves=3
num_cat=0
split_feature=1 10
split_gain=306355 573210
threshold=50.155138015747077 17.500000000000004
decision_type=2 2
left_child=-1 -2
right_child=1 -3
leaf_value=-3.4341809034347537 8.3089331439563221 -2.7739652156829835
leaf_weight=22 28 20
leaf_count=22 28 20
internal_value=1.4517 3.69106
internal_weight=70 48
internal_count=70 48
is_linear=0
shrinkage=0.05


Tree=184
num_leaves=3
num_cat=0
split_feature=26 28
split_gain=309768 167547
threshold=53.500000000000007 80.500000000000014
decision_type=2 2
left_child=-1 -2
right_child=1 -3
leaf_value=6.6381884574890142 -3.50533478810237 2.2880347331364947
leaf_weight=20 26 24
leaf_count=20 26 24
internal_value=1.37911 -0.724517
internal_weight=70 50
internal_count=70 50
is_linear=0
shrinkage=0.05


Tree=185
num_leaves=3
num_cat=0
split_feature=33 34
split_gain=324997 153530
threshold=3786.8666992187505 1564.3933715820315
decision_type=2 2
left_child=1 -1
right_child=-2 -3
leaf_value=1.5510481500625612 5.7124796617598763 -4.2288288928844313
leaf_weight=20 21 27
leaf_count=20 21 27
internal_value=0.541245 -1.76931
internal_weight=68 47
internal_count=68 47
is_linear=0
shrinkage=0.05


Tree=186
num_leaves=3
num_cat=0
split_feature=33 10
split_gain=293309 238113
threshold=3786.8666992187505 14.500000000000002
decision_type=2 2
left_child=1 -1
right_child=-2 -3
leaf_value=-5.8158777141571045 5.4268557687600456 1.3821483576739277
leaf_weight=20 21 27
leaf_count=20 21 27
internal_value=0.514183 -1.68084
internal_weight=68 47
internal_count=68 47
is_linear=0
shrinkage=0.05


Tree=187
num_leaves=3
num_cat=0
split_feature=31 10
split_gain=271435 196524
threshold=6695.5456542968759 14.500000000000002
decision_type=2 2
left_child=1 -1
right_child=-2 -3
leaf_value=-5.2619890303838828 5.0563649025830362 1.2991177778244021
leaf_weight=21 22 25
leaf_count=21 22 25
internal_value=0.488474 -1.69617
internal_weight=68 46
internal_count=68 46
is_linear=0
shrinkage=0.05


Tree=188
num_leaves=3
num_cat=0
split_feature=0 21
split_gain=258561 223114
threshold=9.5000000000000018 3141.8886718750005
decision_type=2 2
left_child=-1 -2
right_child=1 -3
leaf_value=-3.4545888093801644 6.5341305585134597 -0.75438303493318104
leaf_weight=26 21 21
leaf_count=26 21 21
internal_value=0.46405 2.88987
internal_weight=68 42
internal_count=68 42
is_linear=0
shrinkage=0.05


Tree=189
num_leaves=3
num_cat=0
split_feature=33 10
split_gain=246123 192921
threshold=3786.8666992187505 14.500000000000002
decision_type=2 2
left_child=1 -1
right_child=-2 -3
leaf_value=-5.2918835783004763 4.9410354682377413 1.1871683562243427
leaf_weight=20 21 27
leaf_count=20 21 27
internal_value=0.440847 -1.56988
internal_weight=68 47
internal_count=68 47
is_linear=0
shrinkage=0.05


Tree=190
num_leaves=2
num_cat=0
split_feature=25
split_gain=374147
threshold=3587.577026367188
decision_type=2
left_child=-1
right_child=-2
leaf_value=3.9985690244038903 -3.4709639072418215
leaf_weight=30 38
leaf_count=30 38
internal_value=-0.175582
internal_weight=68
internal_count=68
is_linear=0
shrinkage=0.05


Tree=191
num_leaves=2
num_cat=0
split_feature=25
split_gain=337668
threshold=3587.577026367188
decision_type=2
left_child=-1
right_child=-2
leaf_value=3.7986405245463057 -3.2974156712230887
leaf_weight=30 38
leaf_count=30 38
internal_value=-0.166803
internal_weight=68
internal_count=68
is_linear=0
shrinkage=0.05


Tree=192
num_leaves=3
num_cat=0
split_feature=45 32
split_gain=319411 240691
threshold=3832.498657226563 1911.5092773437502
decision_type=2 2
left_child=1 -1
right_child=-2 -3
leaf_value=-6.1041136700174086 4.9681390785035635 1.0536768595377604
leaf_weight=23 21 24
leaf_count=23 21 24
internal_value=-0.158462 -2.44907
internal_weight=68 47
internal_count=68 47
is_linear=0
shrinkage=0.05


Tree=193
num_leaves=2
num_cat=0
split_feature=25
split_gain=310742
threshold=3587.577026367188
decision_type=2
left_child=-1
right_child=-2
leaf_value=3.6535118166605636 -3.153737679280733
leaf_weight=30 38
leaf_count=30 38
internal_value=-0.150539
internal_weight=68
internal_count=68
is_linear=0
shrinkage=0.05


Tree=194
num_leaves=3
num_cat=0
split_feature=45 32
split_gain=292630 218604
threshold=3832.498657226563 1911.5092773437502
decision_type=2 2
left_child=1 -1
right_child=-2 -3
leaf_value=-5.8188015232915467 4.763964732487997 1.0026803175608316
leaf_weight=23 21 24
leaf_count=23 21 24
internal_value=-0.143012 -2.33549
internal_weight=68 47
internal_count=68 47
is_linear=0
shrinkage=0.05


Tree=195
num_leaves=3
num_cat=0
split_feature=0 18
split_gain=417101 596099
threshold=9.5000000000000018 1.0000000180025095e-35
decision_type=2 2
left_child=-1 -2
right_child=1 -3
leaf_value=-5.3791310071945198 7.8192518619390645 -3.363577552275224
leaf_weight=24 26 22
leaf_count=24 26 22
internal_value=0.00281525 2.69379
internal_weight=72 48
internal_count=72 48
is_linear=0
shrinkage=0.05


Tree=196
num_leaves=3
num_cat=0
split_feature=43 11
split_gain=465376 532743
threshold=-818.59051513671864 5.5000000000000009
decision_type=2 2
left_child=-1 -2
right_child=1 -3
leaf_value=-6.2617490314301989 -3.2850666436282072 7.0331296328840587
leaf_weight=21 22 29
leaf_count=21 22 29
internal_value=0.00267449 2.58214
internal_weight=72 51
internal_count=72 51
is_linear=0
shrinkage=0.05


Tree=197
num_leaves=3
num_cat=0
split_feature=43 39
split_gain=420002 606919
threshold=-818.59051513671864 6611.1989746093759
decision_type=2 2
left_child=-1 -2
right_child=1 -3
leaf_value=-5.9486615907578244 -3.3322717467943828 7.5955312121797496
leaf_weight=21 24 27
leaf_count=21 24 27
internal_value=0.00254066 2.45304
internal_weight=72 51
internal_count=72 51
is_linear=0
shrinkage=0.05


Tree=198
num_leaves=3
num_cat=0
split_feature=43 27
split_gain=379052 439097
threshold=-818.59051513671864 4589.0249023437509
decision_type=2 2
left_child=-1 -2
right_child=1 -3
leaf_value=-5.6512285141717822 8.1064340740442287 -1.3960998135228311
leaf_weight=21 20 31
leaf_count=21 20 31
internal_value=0.00241373 2.33038
internal_weight=72 51
internal_count=72 51
is_linear=0
shrinkage=0.05


Tree=199
num_leaves=3
num_cat=0
split_feature=43 39
split_gain=342094 522736
threshold=-818.59051513671864 6611.1989746093759
decision_type=2 2
left_child=-1 -2
right_child=1 -3
leaf_value=-5.3686669940040233 -3.1552438080310825 6.9864057788142446
leaf_weight=21 24 27
leaf_count=21 24 27
internal_value=0.00229302 2.21386
internal_weight=72 51
internal_count=72 51
is_linear=0
shrinkage=0.05


Tree=200
num_leaves=3
num_cat=0
split_feature=37 41
split_gain=312693 233949
threshold=3666.8371582031255 -166.42499542236325
decision_type=2 2
left_child=1 -1
right_child=-2 -3
leaf_value=0.19978500207265218 -3.0919799017906193 7.5218979239463808
leaf_weight=24 30 20
leaf_count=24 30 20
internal_value=0.844235 3.52802
internal_weight=74 44
internal_count=74 44
is_linear=0
shrinkage=0.05


Tree=201
num_leaves=3
num_cat=0
split_feature=43 39
split_gain=303264 430034
threshold=-818.59051513671864 6611.1989746093759
decision_type=2 2
left_child=-1 -2
right_child=1 -3
leaf_value=-3.8180010279019676 -1.806701632340749 7.4747152035052968
leaf_weight=24 24 26
leaf_count=24 24 26
internal_value=0.802023 3.01964
internal_weight=74 50
internal_count=74 50
is_linear=0
shrinkage=0.05


Tree=202
num_leaves=3
num_cat=0
split_feature=37 45
split_gain=284977 395962
threshold=3666.8371582031255 3433.6765136718755
decision_type=2 2
left_child=1 -1
right_child=-2 -3
leaf_value=-1.6399138223557246 -2.9958003252930943 7.8562801547672443
leaf_weight=21 30 23
leaf_count=21 30 23
internal_value=0.761922 3.32401
internal_weight=74 44
internal_count=74 44
is_linear=0
shrinkage=0.05


Tree=203
num_leaves=3
num_cat=0
split_feature=37 45
split_gain=257192 357356
threshold=3666.8371582031255 3433.6765136718755
decision_type=2 2
left_child=1 -1
right_child=-2 -3
leaf_value=-1.5579180989946639 -2.8460101008415224 7.4634662420853335
leaf_weight=21 30 23
leaf_count=21 30 23
internal_value=0.723826 3.15781
internal_weight=74 44
internal_count=74 44
is_linear=0
shrinkage=0.05


Tree=204
num_leaves=3
num_cat=0
split_feature=43 39
split_gain=265858 395605
threshold=-818.59051513671864 6611.1989746093759
decision_type=2 2
left_child=-1 -2
right_child=1 -3
leaf_value=-3.6380877614021303 -1.8651215483744938 7.0370002563183123
leaf_weight=24 24 26
leaf_count=24 24 26
internal_value=0.687635 2.76398
internal_weight=74 50
internal_count=74 50
is_linear=0
shrinkage=0.05


Tree=205
num_leaves=3
num_cat=0
split_feature=10 43
split_gain=286257 289374
threshold=17.500000000000004 491.14799499511724
decision_type=2 2
left_child=1 -1
right_child=-2 -3
leaf_value=-1.4023576327732632 -3.5292802833020689 6.8981559072222032
leaf_weight=21 32 21
leaf_count=21 32 21
internal_value=0.0334432 2.7479
internal_weight=74 42
internal_count=74 42
is_linear=0
shrinkage=0.05


Tree=206
num_leaves=3
num_cat=0
split_feature=37 3
split_gain=414220 400347
threshold=3666.8371582031255 6.802941322326661
decision_type=2 2
left_child=1 -1
right_child=-2 -3
leaf_value=8.4506724864244465 -4.1379269773309879 -1.4338477270943779
leaf_weight=20 33 21
leaf_count=20 33 21
internal_value=0.031771 3.38787
internal_weight=74 41
internal_count=74 41
is_linear=0
shrinkage=0.05


Tree=207
num_leaves=3
num_cat=0
split_feature=37 5
split_gain=373834 365485
threshold=3666.8371582031255 0.53393667936325084
decision_type=2 2
left_child=1 -1
right_child=-2 -3
leaf_value=-1.6188729286193848 -3.931030571099484 7.8254748741785694
leaf_weight=20 33 21
leaf_count=20 33 21
internal_value=0.0301825 3.21848
internal_weight=74 41
internal_count=74 41
is_linear=0
shrinkage=0.05


Tree=208
num_leaves=3
num_cat=0
split_feature=37 3
split_gain=337385 355110
threshold=3666.8371582031255 6.802941322326661
decision_type=2 2
left_child=1 -1
right_child=-2 -3
leaf_value=7.8257520805299281 -3.7344790819919469 -1.4835905801682245
leaf_weight=20 33 21
leaf_count=20 33 21
internal_value=0.0286734 3.05755
internal_weight=74 41
internal_count=74 41
is_linear=0
shrinkage=0.05


Tree=209
num_leaves=3
num_cat=0
split_feature=37 5
split_gain=304490 324009
threshold=3666.8371582031255 0.53393667936325084
decision_type=2 2
left_child=1 -1
right_child=-2 -3
leaf_value=-1.6499365043640137 -3.5477551041227402 7.2423994824999856
leaf_weight=20 33 21
leaf_count=20 33 21
internal_value=0.0272397 2.90467
internal_weight=74 41
internal_count=74 41
is_linear=0
shrinkage=0.05


Tree=210
num_leaves=3
num_cat=0
split_feature=3 24
split_gain=221513 287186
threshold=6.7550001144409189 60.500000000000007
decision_type=2 2
left_child=-1 -2
right_child=1 -3
leaf_value=4.0276986099424823 -6.0736754096072652 2.0136399348576863
leaf_weight=21 23 21
leaf_count=21 23 21
internal_value=-0.19733 -2.21382
internal_weight=65 44
internal_count=65 44
is_linear=0
shrinkage=0.05


Tree=211
num_leaves=3
num_cat=0
split_feature=43 31
split_gain=201007 178194
threshold=1028.144226074219 5799.9218750000009
decision_type=2 2
left_child=1 -1
right_child=-2 -3
leaf_value=0.79634130075573928 3.8372520980380829 -5.5939798641204836
leaf_weight=24 21 20
leaf_count=24 21 20
internal_value=-0.187463 -2.10835
internal_weight=65 44
internal_count=65 44
is_linear=0
shrinkage=0.05


Tree=212
num_leaves=3
num_cat=0
split_feature=3 24
split_gain=200577 261294
threshold=6.7550001144409189 60.500000000000007
decision_type=2 2
left_child=-1 -2
right_child=1 -3
leaf_value=3.8423201907248727 -5.7786715227624654 1.9354701019468763
leaf_weight=21 23 21
leaf_count=21 23 21
internal_value=-0.17809 -2.09692
internal_weight=65 44
internal_count=65 44
is_linear=0
shrinkage=0.05


Tree=213
num_leaves=2
num_cat=0
split_feature=4
split_gain=190290
threshold=0.57518798112869274
decision_type=2
left_child=-1
right_child=-2
leaf_value=-2.7524118449100676 2.6640303712698721
leaf_weight=34 31
leaf_count=34 31
internal_value=-0.169186
internal_weight=65
internal_count=65
is_linear=0
shrinkage=0.05


Tree=214
num_leaves=3
num_cat=0
split_feature=43 30
split_gain=184603 155549
threshold=1028.144226074219 1437.9249267578127
decision_type=2 2
left_child=1 -1
right_child=-2 -3
leaf_value=1.1096645338194711 3.6962668634596327 -4.842250490188599
leaf_weight=21 21 23
leaf_count=21 21 23
internal_value=-0.160726 -2.00156
internal_weight=65 44
internal_count=65 44
is_linear=0
shrinkage=0.05


Tree=215
num_leaves=3
num_cat=0
split_feature=25 21
split_gain=240120 199227
threshold=2923.919311523438 3141.8886718750005
decision_type=2 2
left_child=-1 -2
right_child=1 -3
leaf_value=3.0855587684589887 -6.5533708339387715 0.34176158905029297
leaf_weight=23 22 20
leaf_count=23 22 20
internal_value=-1.02109 -3.26997
internal_weight=65 42
internal_count=65 42
is_linear=0
shrinkage=0.05


Tree=216
num_leaves=3
num_cat=0
split_feature=10 25
split_gain=216750 430433
threshold=17.500000000000004 4722.7741699218759
decision_type=2 2
left_child=1 -1
right_child=-2 -3
leaf_value=6.238625095004128 -4.7438407068451252 -4.0105732297897339
leaf_weight=21 24 20
leaf_count=21 24 20
internal_value=-0.970039 1.23902
internal_weight=65 41
internal_count=65 41
is_linear=0
shrinkage=0.05


Tree=217
num_leaves=3
num_cat=0
split_feature=25 2
split_gain=200839 207628
threshold=2923.919311523438 60.500000000000007
decision_type=2 2
left_child=-1 -2
right_child=1 -3
leaf_value=2.8342241971389108 0.37364507805217401 -6.6653615635633479
leaf_weight=23 22 20
leaf_count=23 22 20
internal_value=-0.921537 -2.97826
internal_weight=65 42
internal_count=65 42
is_linear=0
shrinkage=0.05


Tree=218
num_leaves=3
num_cat=0
split_feature=10 25
split_gain=196517 377453
threshold=17.500000000000004 4722.7741699218759
decision_type=2 2
left_child=1 -1
right_child=-2 -3
leaf_value=5.909790025438582 -4.4688146352767948 -3.6879466772079468
leaf_weight=21 24 20
leaf_count=21 24 20
internal_value=-0.87546 1.22797
internal_weight=65 41
internal_count=65 41
is_linear=0
shrinkage=0.05


Tree=219
num_leaves=3
num_cat=0
split_feature=25 2
split_gain=167683 191718
threshold=2923.919311523438 60.500000000000007
decision_type=2 2
left_child=-1 -2
right_child=1 -3
leaf_value=2.6000831064970598 0.50993174639615146 -6.2540027010440831
leaf_weight=23 22 20
leaf_count=23 22 20
internal_value=-0.831687 -2.71099
internal_weight=65 42
internal_count=65 42
is_linear=0
shrinkage=0.05


Tree=220
num_leaves=3
num_cat=0
split_feature=7 37
split_gain=263074 286882
threshold=0.36038962006568914 3666.8371582031255
decision_type=2 2
left_child=1 -1
right_child=-2 -3
leaf_value=1.6021487090898596 3.7579148261777817 -6.4808810444105234
leaf_weight=23 31 21
leaf_count=23 31 21
internal_value=0.22995 -2.25566
internal_weight=75 44
internal_count=75 44
is_linear=0
shrinkage=0.05


Tree=221
num_leaves=3
num_cat=0
split_feature=3 3
split_gain=216054 319861
threshold=7.1818680763244638 6.6781251430511483
decision_type=2 2
left_child=1 -1
right_child=-2 -3
leaf_value=3.0203866958618164 4.0136634502410891 -5.0822670443304654
leaf_weight=21 25 29
leaf_count=21 25 29
internal_value=0.218453 -1.67915
internal_weight=75 50
internal_count=75 50
is_linear=0
shrinkage=0.05


Tree=222
num_leaves=3
num_cat=0
split_feature=3 3
split_gain=194989 288675
threshold=7.1818680763244638 6.6781251430511483
decision_type=2 2
left_child=1 -1
right_child=-2 -3
leaf_value=2.8693673905872163 3.812980236053467 -4.8281535658343095
leaf_weight=21 25 29
leaf_count=21 25 29
internal_value=0.20753 -1.59519
internal_weight=75 50
internal_count=75 50
is_linear=0
shrinkage=0.05


Tree=223
num_leaves=3
num_cat=0
split_feature=7 37
split_gain=230015 259431
threshold=0.36038962006568914 3666.8371582031255
decision_type=2 2
left_child=1 -1
right_child=-2 -3
leaf_value=1.5415612728699395 3.496008746854721 -6.1450310709930607
leaf_weight=23 31 21
leaf_count=23 31 21
internal_value=0.197154 -2.12704
internal_weight=75 44
internal_count=75 44
is_linear=0
shrinkage=0.05


Tree=224
num_leaves=3
num_cat=0
split_feature=3 10
split_gain=175710 272724
threshold=7.1818680763244638 13.500000000000002
decision_type=2 2
left_child=1 -1
right_child=-2 -3
leaf_value=-5.8634532403378259 3.6098674821853636 1.6183803086650785
leaf_weight=21 25 29
leaf_count=21 25 29
internal_value=0.187296 -1.52399
internal_weight=75 50
internal_count=75 50
is_linear=0
shrinkage=0.05


Tree=225
num_leaves=3
num_cat=0
split_feature=32 17
split_gain=268693 181941
threshold=1467.1440429687502 1.0000000180025095e-35
decision_type=2 2
left_child=-1 -2
right_child=1 -3
leaf_value=-5.0821389000052992 -1.2757031950457343 4.6095950245857242
leaf_weight=23 29 24
leaf_count=23 29 24
internal_value=-0.569136 1.38934
internal_weight=76 53
internal_count=76 53
is_linear=0
shrinkage=0.05


Tree=226
num_leaves=3
num_cat=0
split_feature=32 3
split_gain=242496 177152
threshold=1467.1440429687502 6.802941322326661
decision_type=2 2
left_child=-1 -2
right_child=1 -3
leaf_value=-4.8280318933984514 4.8882462104161588 -1.0218759427312762
leaf_weight=23 21 32
leaf_count=23 21 32
internal_value=-0.540679 1.31987
internal_weight=76 53
internal_count=76 53
is_linear=0
shrinkage=0.05


Tree=227
num_leaves=3
num_cat=0
split_feature=32 17
split_gain=218852 160926
threshold=1467.1440429687502 1.0000000180025095e-35
decision_type=2 2
left_child=-1 -2
right_child=1 -3
leaf_value=-4.5866303651229199 -1.2525331413951415 4.2824560720473528
leaf_weight=23 29 24
leaf_count=23 29 24
internal_value=-0.513645 1.25388
internal_weight=76 53
internal_count=76 53
is_linear=0
shrinkage=0.05


Tree=228
num_leaves=3
num_cat=0
split_feature=32 3
split_gain=197514 156799
threshold=1467.1440429687502 6.802941322326661
decision_type=2 2
left_child=-1 -2
right_child=1 -3
leaf_value=-4.3572987639385721 4.5483180755660646 -1.011936479434371
leaf_weight=23 21 32
leaf_count=23 21 32
internal_value=-0.487963 1.19118
internal_weight=76 53
internal_count=76 53
is_linear=0
shrinkage=0.05


Tree=229
num_leaves=3
num_cat=0
split_feature=7 24
split_gain=188990 240620
threshold=0.26136364042758947 66.500000000000014
decision_type=2 2
left_child=-1 -2
right_child=1 -3
leaf_value=-3.9212104274676403 -1.4976688639322919 5.5825316309928894
leaf_weight=26 30 20
leaf_count=26 30 20
internal_value=-0.463565 1.33441
internal_weight=76 50
internal_count=76 50
is_linear=0
shrinkage=0.05


Tree=230
num_leaves=3
num_cat=0
split_feature=23 3
split_gain=150881 288045
threshold=4589.0249023437509 6.8623530864715585
decision_type=2 2
left_child=1 -1
right_child=-2 -3
leaf_value=3.7986762055754664 3.9960176048455418 -4.1826991562659925
leaf_weight=20 27 26
leaf_count=20 27 26
internal_value=1.02898 -0.712536
internal_weight=73 46
internal_count=73 46
is_linear=0
shrinkage=0.05


Tree=231
num_leaves=3
num_cat=0
split_feature=23 25
split_gain=136170 92377.1
threshold=4589.0249023437509 4722.7741699218759
decision_type=2 2
left_child=1 -1
right_child=-2 -3
leaf_value=1.2882675033349258 3.7962167033442746 -3.2316386806964874
leaf_weight=26 27 20
leaf_count=26 27 20
internal_value=0.977535 -0.676909
internal_weight=73 46
internal_count=73 46
is_linear=0
shrinkage=0.05


Tree=232
num_leaves=3
num_cat=0
split_feature=3 3
split_gain=147665 254142
threshold=7.2656250000000009 6.802941322326661
decision_type=2 2
left_child=1 -1
right_child=-2 -3
leaf_value=2.4929342254002891 4.4673199789864677 -4.5822597296400502
leaf_weight=30 21 22
leaf_count=30 21 22
internal_value=0.928658 -0.500417
internal_weight=73 52
internal_count=73 52
is_linear=0
shrinkage=0.05


Tree=233
num_leaves=3
num_cat=0
split_feature=6 3
split_gain=169932 182861
threshold=0.37980769574642187 6.802941322326661
decision_type=2 2
left_child=1 -1
right_child=-2 -3
leaf_value=2.4125739574432377 4.1256872048744793 -3.8376825647354127
leaf_weight=22 26 25
leaf_count=22 26 25
internal_value=0.882225 -0.912031
internal_weight=73 47
internal_count=73 47
is_linear=0
shrinkage=0.05


Tree=234
num_leaves=3
num_cat=0
split_feature=6 3
split_gain=153364 165032
threshold=0.37980769574642187 6.802941322326661
decision_type=2 2
left_child=1 -1
right_child=-2 -3
leaf_value=2.2919450651515616 3.9194027723314671 -3.6457985019683843
leaf_weight=22 26 25
leaf_count=22 26 25
internal_value=0.838114 -0.866429
internal_weight=73 47
internal_count=73 47
is_linear=0
shrinkage=0.05


Tree=235
num_leaves=3
num_cat=0
split_feature=33 45
split_gain=266309 298413
threshold=3828.696655273438 3596.614135742188
decision_type=2 2
left_child=1 -1
right_child=-2 -3
leaf_value=-5.8751243821505845 3.7939259663224223 2.0638258361816404
leaf_weight=29 24 20
leaf_count=29 24 20
internal_value=-0.521204 -2.63474
internal_weight=73 49
internal_count=73 49
is_linear=0
shrinkage=0.05


Tree=236
num_leaves=3
num_cat=0
split_feature=33 45
split_gain=240344 269318
threshold=3828.696655273438 3596.614135742188
decision_type=2 2
left_child=1 -1
right_child=-2 -3
leaf_value=-5.5813681536707387 3.6042298523088299 1.9606345319747924
leaf_weight=29 24 20
leaf_count=29 24 20
internal_value=-0.495143 -2.503
internal_weight=73 49
internal_count=73 49
is_linear=0
shrinkage=0.05


Tree=237
num_leaves=3
num_cat=0
split_feature=43 27
split_gain=216222 314528
threshold=-166.8659973144531 4589.0249023437509
decision_type=2 2
left_child=-1 -2
right_child=1 -3
leaf_value=-3.6377803441016905 6.405520973205566 -2.2580646211450754
leaf_weight=31 20 22
leaf_count=31 20 22
internal_value=-0.470386 1.86745
internal_weight=73 42
internal_count=73 42
is_linear=0
shrinkage=0.05


Tree=238
num_leaves=3
num_cat=0
split_feature=44 27
split_gain=172386 264852
threshold=-0.041735079139471047 4589.0249023437509
decision_type=2 2
left_child=-1 -2
right_child=1 -3
leaf_value=-3.2750213890306412 5.8048964524269104 -2.145161416313865
leaf_weight=31 20 22
leaf_count=31 20 22
internal_value=-0.446867 1.64058
internal_weight=73 42
internal_count=73 42
is_linear=0
shrinkage=0.05


Tree=239
num_leaves=3
num_cat=0
split_feature=33 31
split_gain=213649 189866
threshold=3828.696655273438 5901.8557128906259
decision_type=2 2
left_child=1 -1
right_child=-2 -3
leaf_value=0.4918843878640069 3.4404917970299724 -5.765586631948298
leaf_weight=27 24 22
leaf_count=27 24 22
internal_value=-0.424524 -2.31759
internal_weight=73 49
internal_count=73 49
is_linear=0
shrinkage=0.05


Tree=240
num_leaves=3
num_cat=0
split_feature=3 33
split_gain=204373 247855
threshold=7.1818680763244638 3668.4277343750005
decision_type=2 2
left_child=1 -1
right_child=-2 -3
leaf_value=1.2007391376928851 3.1790797600379359 -6.4899838890088724
leaf_weight=22 26 20
leaf_count=22 26 20
internal_value=-0.304814 -2.46151
internal_weight=68 42
internal_count=68 42
is_linear=0
shrinkage=0.05


Tree=241
num_leaves=3
num_cat=0
split_feature=3 33
split_gain=184446 223689
threshold=7.1818680763244638 3668.4277343750005
decision_type=2 2
left_child=1 -1
right_child=-2 -3
leaf_value=1.1407022305510262 3.0201257907427275 -6.1654847252368929
leaf_weight=22 26 20
leaf_count=22 26 20
internal_value=-0.289573 -2.33843
internal_weight=68 42
internal_count=68 42
is_linear=0
shrinkage=0.05


Tree=242
num_leaves=3
num_cat=0
split_feature=4 23
split_gain=179608 292872
threshold=0.51470589637756359 4030.829223632813
decision_type=2 2
left_child=-1 -2
right_child=1 -3
leaf_value=-3.8694493607334475 -2.5623250979464505 5.5070461407951692
leaf_weight=23 22 23
leaf_count=23 22 23
internal_value=-0.275095 1.56202
internal_weight=68 45
internal_count=68 45
is_linear=0
shrinkage=0.05


Tree=243
num_leaves=3
num_cat=0
split_feature=4 24
split_gain=162096 322333
threshold=0.51470589637756359 66.500000000000014
decision_type=2 2
left_child=-1 -2
right_child=1 -3
leaf_value=-3.6759767978087718 -2.654779625457266 5.8107407689094543
leaf_weight=23 23 22
leaf_count=23 23 22
internal_value=-0.26134 1.48392
internal_weight=68 45
internal_count=68 45
is_linear=0
shrinkage=0.05


Tree=244
num_leaves=3
num_cat=0
split_feature=8 3
split_gain=159646 404034
threshold=0.38675214350223547 7.1818680763244638
decision_type=2 2
left_child=1 -1
right_child=-2 -3
leaf_value=-6.033575653571349 3.2549013094468551 3.4191293811798098
leaf_weight=26 22 20
leaf_count=26 22 20
internal_value=-0.248273 -1.9237
internal_weight=68 46
internal_count=68 46
is_linear=0
shrinkage=0.05


Tree=245
num_leaves=2
num_cat=0
split_feature=26
split_gain=312395
threshold=78.000000000000014
decision_type=2
left_child=-1
right_child=-2
leaf_value=-2.8013922972556875 4.650106200304899
leaf_weight=39 22
leaf_count=39 22
internal_value=-0.113967
internal_weight=61
internal_count=61
is_linear=0
shrinkage=0.05


Tree=246
num_leaves=2
num_cat=0
split_feature=26
split_gain=281937
threshold=78.000000000000014
decision_type=2
left_child=-1
right_child=-2
leaf_value=-2.6613226817204403 4.4176007921045475
leaf_weight=39 22
leaf_count=39 22
internal_value=-0.108268
internal_weight=61
internal_count=61
is_linear=0
shrinkage=0.05


Tree=247
num_leaves=2
num_cat=0
split_feature=26
split_gain=254448
threshold=78.000000000000014
decision_type=2
left_child=-1
right_child=-2
